<?xml version="1.0"?>
<opencv_storage>
<my_nn type_id="opencv-ml-ann-mlp">
  <layer_sizes type_id="opencv-matrix">
    <rows>1</rows>
    <cols>3</cols>
    <dt>i</dt>
    <data>
      48 58 34</data></layer_sizes>
  <activation_function>SIGMOID_SYM</activation_function>
  <f_param1>6.6666666666666663e-001</f_param1>
  <f_param2>1.7159000000000000e+000</f_param2>
  <min_val>-9.4999999999999996e-001</min_val>
  <max_val>9.4999999999999996e-001</max_val>
  <min_val1>-9.7999999999999998e-001</min_val1>
  <max_val1>9.7999999999999998e-001</max_val1>
  <training_params>
    <train_method>BACKPROP</train_method>
    <dw_scale>1.0000000000000001e-001</dw_scale>
    <moment_scale>1.0000000000000001e-001</moment_scale>
    <term_criteria><epsilon>9.9999997764825821e-003</epsilon>
      <iterations>5000</iterations></term_criteria></training_params>
  <input_scale>
    4.2530492466913380e+001 -1.6907219713850645e+000
    1.0483395517132539e+001 -1.3689764727319247e+000
    6.2297030730145959e+000 -1.2250352667515509e+000
    5.3421391382457566e+000 -1.4145579130637398e+000
    4.5365260448273830e+001 -1.7242563893919356e+000
    1.8458106611061428e+001 -1.4161441536789339e+000
    3.7683579815731796e+000 -8.5473568959522750e-001
    4.7996660830713358e+000 -1.1831206989518992e+000
    3.8853667128335083e+001 -1.5688477066809798e+000
    1.7763183328666848e+001 -1.5375349048250597e+000
    4.3138930855179121e+000 -9.8241056567378049e-001
    5.2739684980405457e+000 -1.2031471096952340e+000
    2.9983575173965647e+001 -1.6870097330120521e+000
    1.2560790582192539e+001 -1.6599689986810870e+000
    5.5284996808706452e+000 -9.4033460067027819e-001
    4.5931564184411835e+000 -1.2398147086815845e+000
    1.6594034334958849e-002 -2.1747702145547025e+000
    1.6594034334958849e-002 -2.1747702145547025e+000
    1.6594034334958849e-002 -2.1747702145547025e+000
    1.3885642705453397e-002 -2.0074861640467216e+000
    1.3885642705453397e-002 -2.0074861640467216e+000
    1.3885642705453397e-002 -2.0074861640467216e+000
    1.6259881291234367e-002 -2.5202337769610588e+000
    1.6259881291234367e-002 -2.5202337769610588e+000
    1.6259881291234367e-002 -2.5202337769610588e+000
    1.7946015460615861e-002 -1.7060062903243987e+000
    1.7946015460615861e-002 -1.7060062903243987e+000
    1.7946015460615861e-002 -1.7060062903243987e+000
    1.6194963396520625e-002 -2.0805407498160986e+000
    1.6194963396520625e-002 -2.0805407498160986e+000
    1.6194963396520625e-002 -2.0805407498160986e+000
    1.8618959664738578e-002 -1.7891451196661954e+000
    1.8618959664738578e-002 -1.7891451196661954e+000
    1.8618959664738578e-002 -1.7891451196661954e+000
    1.8039806411010880e-002 -2.1319469745659734e+000
    1.8039806411010880e-002 -2.1319469745659734e+000
    1.8039806411010880e-002 -2.1319469745659734e+000
    1.7754419616881015e-002 -1.8291751904697797e+000
    1.7754419616881015e-002 -1.8291751904697797e+000
    1.7754419616881015e-002 -1.8291751904697797e+000
    1.5344235626829997e-002 -1.8602065065982323e+000
    1.5344235626829997e-002 -1.8602065065982323e+000
    1.5344235626829997e-002 -1.8602065065982323e+000
    1.5738014568900078e-002 -1.5320031417261348e+000
    1.5738014568900078e-002 -1.5320031417261348e+000
    1.5738014568900078e-002 -1.5320031417261348e+000
    1.5625001748953187e-002 -1.6467832725646721e+000
    1.5625001748953187e-002 -1.6467832725646721e+000</input_scale>
  <output_scale>
    5.2631578947368418e-001 4.9999999999999994e-001
    5.2631578947368418e-001 4.9999999999999994e-001
    5.2631578947368418e-001 4.9999999999999994e-001
    5.2631578947368418e-001 4.9999999999999994e-001
    5.2631578947368418e-001 4.9999999999999994e-001
    5.2631578947368418e-001 4.9999999999999994e-001
    5.2631578947368418e-001 4.9999999999999994e-001
    5.2631578947368418e-001 4.9999999999999994e-001
    5.2631578947368418e-001 4.9999999999999994e-001
    5.2631578947368418e-001 4.9999999999999994e-001
    5.2631578947368418e-001 4.9999999999999994e-001
    5.2631578947368418e-001 4.9999999999999994e-001
    5.2631578947368418e-001 4.9999999999999994e-001
    5.2631578947368418e-001 4.9999999999999994e-001
    5.2631578947368418e-001 4.9999999999999994e-001
    5.2631578947368418e-001 4.9999999999999994e-001
    5.2631578947368418e-001 4.9999999999999994e-001
    5.2631578947368418e-001 4.9999999999999994e-001
    5.2631578947368418e-001 4.9999999999999994e-001
    5.2631578947368418e-001 4.9999999999999994e-001
    5.2631578947368418e-001 4.9999999999999994e-001
    5.2631578947368418e-001 4.9999999999999994e-001
    5.2631578947368418e-001 4.9999999999999994e-001
    5.2631578947368418e-001 4.9999999999999994e-001
    5.2631578947368418e-001 4.9999999999999994e-001
    5.2631578947368418e-001 4.9999999999999994e-001
    5.2631578947368418e-001 4.9999999999999994e-001
    5.2631578947368418e-001 4.9999999999999994e-001
    5.2631578947368418e-001 4.9999999999999994e-001
    5.2631578947368418e-001 4.9999999999999994e-001
    5.2631578947368418e-001 4.9999999999999994e-001
    5.2631578947368418e-001 4.9999999999999994e-001
    5.2631578947368418e-001 4.9999999999999994e-001
    5.2631578947368418e-001 4.9999999999999994e-001</output_scale>
  <inv_output_scale>
    1.8999999999999999e+000 -9.4999999999999996e-001
    1.8999999999999999e+000 -9.4999999999999996e-001
    1.8999999999999999e+000 -9.4999999999999996e-001
    1.8999999999999999e+000 -9.4999999999999996e-001
    1.8999999999999999e+000 -9.4999999999999996e-001
    1.8999999999999999e+000 -9.4999999999999996e-001
    1.8999999999999999e+000 -9.4999999999999996e-001
    1.8999999999999999e+000 -9.4999999999999996e-001
    1.8999999999999999e+000 -9.4999999999999996e-001
    1.8999999999999999e+000 -9.4999999999999996e-001
    1.8999999999999999e+000 -9.4999999999999996e-001
    1.8999999999999999e+000 -9.4999999999999996e-001
    1.8999999999999999e+000 -9.4999999999999996e-001
    1.8999999999999999e+000 -9.4999999999999996e-001
    1.8999999999999999e+000 -9.4999999999999996e-001
    1.8999999999999999e+000 -9.4999999999999996e-001
    1.8999999999999999e+000 -9.4999999999999996e-001
    1.8999999999999999e+000 -9.4999999999999996e-001
    1.8999999999999999e+000 -9.4999999999999996e-001
    1.8999999999999999e+000 -9.4999999999999996e-001
    1.8999999999999999e+000 -9.4999999999999996e-001
    1.8999999999999999e+000 -9.4999999999999996e-001
    1.8999999999999999e+000 -9.4999999999999996e-001
    1.8999999999999999e+000 -9.4999999999999996e-001
    1.8999999999999999e+000 -9.4999999999999996e-001
    1.8999999999999999e+000 -9.4999999999999996e-001
    1.8999999999999999e+000 -9.4999999999999996e-001
    1.8999999999999999e+000 -9.4999999999999996e-001
    1.8999999999999999e+000 -9.4999999999999996e-001
    1.8999999999999999e+000 -9.4999999999999996e-001
    1.8999999999999999e+000 -9.4999999999999996e-001
    1.8999999999999999e+000 -9.4999999999999996e-001
    1.8999999999999999e+000 -9.4999999999999996e-001
    1.8999999999999999e+000 -9.4999999999999996e-001</inv_output_scale>
  <weights>
    <_>
      -1.3140606483599592e+001 9.8771445788105705e-001
      8.1461048982598294e-001 8.3251062191850196e-003
      -1.3694674731506369e+000 1.4015961792392604e+000
      -5.0079841127106739e-001 -5.1948377141575264e-001
      3.7783933784285723e-001 -6.7805503598198791e-001
      1.6414283748454692e+000 -8.0745616867870929e-001
      -9.2426528437767452e-001 6.0738004715472571e-001
      2.6192689148497430e+000 6.4159859679134079e-001
      4.9467944893706800e-001 1.0711710183855250e+000
      -1.7404545005922907e+000 6.6592164263654063e-001
      2.1798284746701393e+000 -1.2765886416239201e+000
      -1.3329777749227676e+000 4.3140513374852379e-001
      -1.4565859066392803e-001 3.1808006441603365e-001
      -1.3007531960514607e+000 -5.7824777648145398e-001
      6.7683729406046689e-001 9.1994216478555424e-001
      3.0983023814204402e-001 3.3635251658536286e-001
      -1.1888871666959446e+000 -8.2812866941971608e-001
      -3.7180286684834668e-001 -2.1439294520824029e-001
      3.1149518274180577e-001 8.8034233385470129e-001
      -1.8402661139449397e+000 5.7386841192294491e-001
      3.8373726689165533e-001 -8.0439594503109024e-001
      8.8728335525044877e-001 -3.1326863326831694e-001
      1.2379931785619203e+000 -1.9720719575150905e-001
      2.2560332812040684e-001 -1.5213241553039607e+000
      5.7885308939415903e-001 -4.5406635389341460e-001
      -9.7615988379942265e-001 4.0147354075169994e-001
      5.3420312676133963e-001 6.9264897706540063e-001
      5.1040861930350401e-001 -8.8992906693016094e-001
      -1.7842816641905659e-001 -5.6618840675596849e-001
      -1.4565052339225165e+001 1.5007121399259063e-001
      1.6254753149628218e-001 3.5630881219760790e-001
      8.8012951731698152e-001 4.6781822786765576e-001
      -1.1403492483807649e+000 8.1775402145410603e-001
      1.7494228399660152e+000 -1.9414629950585738e+000
      -2.7832081616943283e-001 1.1208047129470531e+000
      2.6827848142449146e-001 1.8366811994806473e-001
      6.7952277879946488e-001 3.0522817591633147e+000
      1.2960891980387630e+000 5.2470814260513332e-001
      9.3193842106748725e-001 -6.8271057782842065e-002
      1.5195751467601519e+000 -1.9743000818456931e+000
      -1.3460802764537865e+000 -4.2194938288740164e-001
      -1.5220376709413932e+000 -1.9229964952724090e+000
      5.5549327995975117e-001 -1.6012607962934584e+000
      -1.8256602186471471e-001 2.8679655709898355e-001
      2.6429304025198599e+000 2.7963699860244029e-001
      1.9043713738646644e+000 5.1991480150319647e-001
      1.5171999288008239e-001 -1.3213988377240542e+000
      5.4949382692912141e-001 -9.3037268597537515e-001
      -1.8688164163013194e+000 3.2694812535146678e-001
      2.2099400968346554e+000 -1.2242086343951517e+000
      1.1439924171996219e-001 -2.1701718992170291e-001
      1.0595230602400656e+000 -2.4491803104325485e-001
      -8.6576765114027243e-001 -1.9033543301906850e+000
      -1.3649082976084029e-001 -2.7598945256720948e+000
      3.8376538606959792e-001 -9.3026738743589588e-001
      3.8484797870616932e-001 2.0201910952665756e+000
      -1.5888173726382071e+000 1.2456256795813727e+000
      2.9382178420314797e-001 -1.0702845745309642e+000
      8.6934213223373114e+000 8.5510812140967185e-001
      5.5581994916977673e-001 -9.7026259276770632e-001
      -3.2383722343278700e+000 9.0576006192609892e-001
      1.1764606605524273e+000 -3.1710898560331285e-001
      -2.5899063592457212e+000 -4.1142638212172733e-001
      2.6565979467721934e-001 -3.5436677184291165e-001
      1.6000443090969709e+000 1.5857563759074675e+000
      1.2141984444834628e+000 3.0693486218308763e-001
      -6.4712162924992003e-002 -1.3210066006063801e+000
      5.8661381690896719e-001 -1.9427813738326156e+000
      -2.3974837057745173e+000 -2.7305118891862867e-001
      4.0078357841412127e-001 -1.2855113153037407e+000
      1.4802972594867450e+000 -1.8081754957382785e+000
      4.5332490454217900e-001 2.8284699310877753e-001
      -3.5438585790377891e-001 5.9016175519685887e-001
      2.0152896584111110e-001 -1.3332404982813346e+000
      1.4062074434368499e+000 9.1438734213780837e-001
      -1.4423618692360093e-001 -6.9154777640547616e-001
      8.4573507828654443e-002 -9.9435699492315899e-001
      1.2398307334777086e+000 -2.0827085849748248e+000
      -8.3780756455640182e-001 1.1419721166815278e+000
      1.0813896729696602e+000 -5.9786852950659086e-001
      5.5410673026163759e-001 -2.5281769496266500e+000
      6.7438993291665444e-002 2.4845295591184327e+000
      -3.2337461876902043e+000 5.5303339186379252e-001
      1.6070028355700885e+000 5.2050345797375541e-001
      -1.2792797751820384e-001 1.6248257221264759e+000
      -2.8624722719106770e+000 -4.1389555697829017e-001
      4.1630395744244697e-001 -6.9965938710411191e-001
      -2.5471587083902516e+001 1.0651781923230319e+000
      8.2376567279333776e-002 -7.3638403077777159e-001
      1.3917691962938417e+000 -1.2426161503219977e+000
      2.1723577484972791e+000 2.6254482465931668e+000
      8.4690829445161131e-001 1.4028004040816573e+000
      2.2084124394645004e+000 9.4025707182759111e-001
      -1.4707062998080023e+000 1.0719780551457310e+000
      -5.6353797811491975e-002 -9.7940969325711824e-001
      2.4781248249213630e+000 2.3762485142592356e+000
      3.3345807844825295e+000 1.7509792399269726e+000
      1.7865684555167254e+000 -1.0647163357137750e+000
      -2.3732607392848810e+000 1.6811136237682420e-001
      -8.7883915411567493e-001 4.2718064717922860e-001
      7.3743237065699352e-001 -3.7499278100775171e+000
      4.1138368499978684e-001 1.5762059260935901e+000
      1.5951118622425269e+000 6.4457176351213696e-001
      -1.0244679988487825e-001 -1.1112394186897820e+000
      -2.7584196794763077e-001 4.7856171446114953e-001
      -1.7278157254576731e+000 2.1298515856005786e+000
      -6.1935260749009124e-001 2.8229137830067302e-001
      -2.0835211656841386e+000 -1.4786734708031766e+000
      -8.9478364242295189e-002 -7.0780308142430559e-001
      -4.6020580241681536e-001 1.9469673649768691e+000
      -1.7710447300581016e+000 -2.4924503849909434e+000
      -1.9855067421111208e-001 1.0198745120686938e+000
      -7.7611411014434162e-001 1.1954149908198759e+000
      4.7774590195953764e-001 -1.4158695110353214e+000
      6.3561556670262886e-001 -3.6828147487537444e-001
      -1.0560822918431103e+000 2.2968880042922764e+000
      1.3278539088137201e+001 -1.0184923434999738e+000
      -4.5524040423168954e-001 -4.8314609165533477e-002
      -1.5430670637566557e+000 -1.1448072517778338e+000
      -2.0576755493545584e+000 -2.1517636400765681e+000
      -1.2905476547984081e+000 1.0813538595025833e+000
      1.9167292070433568e+000 1.0567802633723711e+000
      -2.4435395118036656e+000 -1.2798629037309430e+000
      -1.5037472300190813e+000 -1.5616876835571805e+000
      -1.2808511122555574e-001 -1.2901738034208294e+000
      4.8371134195957521e-001 2.2317694862562415e-001
      1.1008990704677362e+000 1.4456878437660621e+000
      -8.7085200720397460e-001 2.9145123891028024e-001
      8.4158684446139123e-002 4.9813793585286620e-001
      -5.3458099480561960e-001 1.4780044066141680e+000
      1.5525066921215100e+000 -1.8209785502383637e+000
      -9.0264584764416811e-001 -7.9899802350709803e-001
      -2.0452222060030638e+000 5.3114776312125023e-001
      -1.0609289552901966e+000 1.6040489372850804e+000
      7.6102480820252494e-001 -1.1316386081178599e-001
      8.0635151999307020e-001 -9.1926428407076111e-001
      -9.1792263616541331e-002 1.5418558575478940e+000
      -1.2778241797805003e+000 -7.8744269325782335e-001
      6.7730769360463849e-001 8.0282411799924835e-001
      1.0781186223872596e+000 1.8579410243915702e+000
      1.9182767332420128e+000 1.7613014706959971e+000
      6.5181283464022677e-001 -3.7372773994743251e-002
      1.1597723362223304e+000 -6.2727022414685840e-001
      1.2390950298043020e+000 -1.9649271175346808e-001
      -4.2842009164735823e-002 -2.9196771752710399e-001
      1.1491645492872234e+001 -8.6192509705562947e-001
      -9.1488108670157675e-001 6.7838668207561104e-001
      -1.3399392255012421e+000 -1.2565382817388706e+000
      1.2091330462296259e+000 -3.2834711273750716e-001
      -1.4463844191587796e-001 -1.0662000064973722e+000
      6.0039063412081473e-001 1.8568532459801910e+000
      -9.0872314624718731e-001 -1.0665320070769868e+000
      1.1102522873712197e+000 1.3027444588507038e+000
      1.1728944211641292e+000 -2.1330884200868101e+000
      -5.6457544216330691e-001 1.5619138504406644e+000
      -5.6128332285768345e-001 -1.2226706327569261e+000
      -2.9678581349629990e-001 -5.0022734029643290e-001
      4.5788351959533241e-001 -1.4290142366801653e+000
      9.9617601035269754e-001 -9.5487523995742241e-001
      -1.7446274427929100e+000 -8.2451500499409192e-001
      -4.0975159583909837e-001 1.4049741371818325e-001
      -1.3810797416336895e+000 -1.0835247170606148e+000
      -1.0873906804684338e-001 5.3280224141681443e-001
      8.6440616848637097e-001 -2.3593936603030818e+000
      6.3827959810358303e-001 -7.9764062780250045e-001
      -1.1177274543685349e+000 2.3916101179506057e+000
      1.3204180394838134e+000 -1.0133167407187260e+000
      1.4454827986148240e+000 -9.3717704646154298e-001
      -2.0833846234152711e+000 4.5166542155465228e+000
      -1.4804734131651467e+000 -6.2055926652696901e-002
      2.0557977076516015e-001 5.3290725928965677e-001
      1.3372118549332694e+000 1.3104105679910631e+000
      -3.9927344362919642e-001 1.3036248342658718e-001
      -1.4393028837590409e+000 -6.4909886958443896e-001
      8.0856461210879687e+000 1.0505790351259650e+000
      1.3243163001631728e-001 -5.0529509158900210e-001
      -1.5091838060324991e+000 3.4835471004239884e+000
      1.7987039431351426e-001 -1.2496472546321273e+000
      -1.2452351425751010e-001 -2.6010372746979032e-001
      1.5729269638427132e+000 8.7190637850723096e-001
      2.7556471877287598e+000 8.8769636551704934e-001
      -2.1605897962788859e-001 1.0989329883797005e+000
      5.0516013556155015e-001 1.0953908773225007e+000
      3.7186234853080280e+000 -6.0532180177424977e-001
      -6.3290083798092911e-001 -1.3704950236601343e+000
      -1.2854233383993243e+000 -1.3671920690633872e+000
      3.3109589724420574e-001 -3.5839256112805296e+000
      -1.0918032462053422e+000 -8.4043039800224528e-001
      2.0981958143012502e-001 1.7712343800905839e+000
      3.8675780877651893e+000 -1.0936058506208119e+000
      6.6312846698943007e-001 1.9893753650453190e+000
      -2.7381467723802971e-001 -2.1498398353797383e+000
      4.1252866634303303e-001 -2.5444489478456456e+000
      -3.7575746028137030e-001 -1.5614481339255153e+000
      1.0176324244143269e-001 9.5986358761079227e-001
      1.1410270820590465e+000 1.0756317406479128e+000
      2.5039224818004269e-001 -2.2828950945243953e+000
      4.7956515249605286e-001 1.7776099754047939e-001
      -1.8241928178990505e+000 -3.1123894728577800e-001
      1.5116211313462384e+000 1.9710865308991572e+000
      -1.1440476467569034e+000 1.4230864938460117e+000
      -1.6278291421674722e+000 -1.1174201293213779e+000
      1.6318397856049263e+000 -8.2939774080862738e-001
      -1.4795897552832397e+001 3.1448444413499654e+000
      1.4285593851397478e+000 3.5400929575201012e-001
      7.2285540764242673e-001 -1.9439686558616729e+000
      -2.4453330730648820e-001 9.8957631405594448e-001
      -1.0842686654608407e+000 1.1435943995411781e+000
      1.6861175759232070e+000 -6.3864571798106651e-001
      6.4874789740845873e-002 -1.7262063933271343e+000
      2.1443105351444731e+000 -2.0494936796683128e+000
      -4.4655521260055314e-001 2.5498020438373263e+000
      -2.8492574994626354e+000 3.7261510170323353e-001
      -5.8399708679237705e-001 3.5770612432659651e-002
      8.1580732215152073e-003 3.3205980097517900e+000
      6.1240743896045768e-001 2.6130793709488520e+000
      1.5317886751582068e+000 -1.0198361498798698e+000
      -8.6600387321504668e-001 1.1040161457318416e+000
      -1.9953920276097079e+000 3.7926825624753918e-001
      -3.0053738454748902e+000 -2.7934576091747689e+000
      -2.0116870728037659e+000 1.5375146349114772e+000
      3.8515761723881825e-001 9.0586196049916339e+000
      -1.6979266403867488e-001 -8.0099610615187788e-001
      -1.0163180260514423e-001 1.4856211407117896e+000
      -5.2345914487182699e-001 1.3293229275216711e+000
      4.4995774808968403e-001 9.1004053136627627e-001
      -9.4686690906182580e-001 9.0665287424701269e-001
      -4.3537693363263491e-001 4.3985031825705762e-001
      -4.5761326617928177e-001 1.0240679554786707e-001
      -9.6885165751106520e-002 1.3940499624692066e+000
      -3.3219066446902551e-001 -1.2970284010475785e+000
      -1.0761363015207550e+000 5.2242055795222786e-001
      1.3431596836981312e+001 -2.2088339910469408e+000
      4.5909051003908958e+000 -1.8908118263774745e-001
      1.9067871868527588e+000 4.4255334460985357e-001
      -2.0731642767935785e+000 2.8529510747633685e-001
      1.5288865215107494e+000 1.5221357510136839e+000
      1.4629507424851032e+000 7.8921403025043524e-001
      -7.8420522344296295e-001 -5.7960602140541873e-001
      -3.7319298224675728e+000 -2.2220164110991336e-001
      -1.0492098384572732e+000 2.7484609943813676e+000
      2.5450978892977756e+000 8.9819207637135179e-001
      1.6728492886157280e+000 5.7941739122013924e-001
      4.7912515318335203e-001 -2.0805351634623590e+000
      1.3659197301796591e+000 -3.4364579412596021e+000
      2.1134464634911718e+000 -3.9014233510281471e-001
      7.6430303211298578e-001 -2.7649745975599060e+000
      9.0814875454003796e-001 -2.4519918987005623e-001
      -1.0528216985674541e+000 -1.2353364727903264e-001
      2.2986285677019906e+000 -1.3176078816403365e+000
      3.1017114809721086e-001 2.2192641612334620e+000
      5.6086292099427615e-001 1.1885009461684843e+000
      4.0623166153677670e-001 -9.9205876095654580e-002
      1.6402922958391646e+000 7.1619839743973057e-001
      1.9437561660237237e+000 8.7270307261651925e-001
      -1.2890020791235117e+000 -4.1282359459376938e-001
      8.4846052571965550e-002 1.7069621349956148e+000
      -1.0574524447582021e+000 2.7089314824980226e+000
      -5.4953802131762552e-001 -1.2748749704172808e+000
      2.1729553794430561e+000 1.4627570968019947e+000
      -6.0576853008532972e-001 8.4904024174178216e-001
      2.2697646470435327e+001 -9.9947856196154694e-001
      -3.7941447215055657e-001 -7.8153621832876352e-001
      -1.7031779839584609e+000 -1.6993677208632629e+000
      1.0314614015774521e+000 -1.4766561104951412e+000
      -9.3406427148577220e-001 -1.1320753284682079e+000
      -9.5881496365557772e-001 -5.3004750924788935e-001
      3.3073741528388645e-001 3.9820482117387213e-001
      2.5335021328567164e-001 -2.1222888208264052e+000
      -9.0405303269449977e-001 -2.1304443433970563e-001
      -1.2652629811559346e+000 -1.0433074081920790e+000
      5.5507870962357586e-001 1.0645557639612944e+000
      1.2643205388440444e+000 -3.8549912312673196e-001
      4.2313836727038118e-001 7.3281976692418072e-001
      6.7794918163950235e-001 3.5833238277191990e+000
      1.6697504320754712e+000 1.6202552542272699e+000
      -7.3261194086665349e-001 -5.0611416829946743e-001
      -7.9036795341746546e-001 1.1607459427716200e+000
      -1.0088161632183246e+000 2.2296283460133062e-001
      9.0254157111480871e-001 -2.7908741615607093e+000
      5.7238371214343986e-001 1.0361463754450639e+000
      2.5035685628034671e-002 2.1851653191700082e+000
      6.4705310126965332e-001 4.9185126199618012e-001
      -1.6023667963894739e+000 -1.4886682656212531e+000
      6.3046608731245124e-001 2.0768450648325101e+000
      1.0188206234079007e+000 -4.8601028073640623e-001
      7.4082858855952849e-001 9.0298966698327793e-002
      6.0497407015954063e-001 4.3092097845231908e-002
      5.2635049590821736e-001 8.6720916105174173e-001
      2.5081645451622592e+000 1.3824422317215368e+000
      1.1636882456109518e+001 1.3311745195533395e+000
      8.5476078051601256e-001 -9.1783980484515457e-002
      -3.1857592207065712e+000 2.4229348549960017e+000
      -3.2724139733317037e-001 -7.9667275182467845e-001
      1.2777534364869207e+000 -5.7739596396085824e-001
      1.0034894929807741e+000 3.9451511531020134e-001
      1.7334792052314443e+000 1.5282276414290450e+000
      -8.7825483648249200e-002 8.8388006756582660e-001
      4.3965194367440369e-001 3.2795056546785134e-001
      3.6489082352885291e+000 -8.7364084118279628e-001
      -4.2565923704004788e-001 -5.2643996786977809e-001
      3.3919853920455745e-001 -9.7123832635792851e-001
      5.3230015003500120e-001 -2.8296374374185786e+000
      -1.7985322884677442e+000 6.9362566045584695e-001
      1.3173627000687425e+000 1.2244041280412172e+000
      2.7316825435851571e+000 1.2246076293192028e-001
      6.2066681646461608e-001 1.7959347358722777e+000
      -2.0422924577520352e+000 -1.3012361889251420e-001
      8.5287699012796503e-001 -4.8308350374896908e-001
      -6.2351042571671089e-001 -7.6304845824928358e-001
      2.9204548263006497e-001 2.5832127486540575e+000
      1.0680782476538626e+000 -9.5549062681165187e-001
      4.4884283060795158e-002 -1.5627030652238405e+000
      1.6398671106714546e+000 6.8857182843734333e-001
      -1.0601428043962646e+000 1.8204154650469995e-001
      -1.6415073572816355e-001 1.3782515894698106e+000
      -7.2578856972923977e-001 1.6120187459113997e+000
      -7.6110087175684960e-001 -6.3433323937155239e-001
      1.5359036709528568e+000 -5.4962326134304507e-001
      -1.5851609224799247e+001 -4.8324838678432375e-001
      3.2211021064904983e+000 -2.8157404500237154e-001
      3.9752865239990141e+000 9.6065750485119716e-001
      5.2065681695059218e-001 6.6201646358770835e-002
      -5.4215464596160379e+000 1.8496771737106261e+000
      1.3721904625111607e+000 -1.3594072734832146e+000
      5.0280769069243891e-001 -2.7852915054358456e+000
      -5.1139314448689388e-001 -1.5275005838075615e+000
      5.5521212928035399e-002 3.0884174868020291e+000
      -6.3790756364651058e+000 1.7069453613992405e-001
      -7.1503372788845720e-001 1.1450325958470604e+000
      -8.3531042453697218e-002 -7.0040314669172954e-001
      9.0449673955805010e-001 7.6428197868995562e-001
      4.2251070777691807e-001 -1.7081060897590510e+000
      -1.4202427335416736e+000 3.5238936156851353e-001
      -3.0393052954079485e+000 8.8385892168220972e-002
      -4.9586195149779160e+000 -3.5263009872628226e+000
      1.9416122616484690e+000 -2.3902380788740638e+000
      -3.5526302301610402e-001 3.7256888713447234e+000
      -5.9674979699033104e-001 8.0245151870986153e-001
      -6.3856027156860051e-001 -2.8903189344842368e+000
      -2.1337751779779476e-001 9.4293827784583151e+000
      8.5982851459770659e-001 7.1480098539720838e-001
      -3.0247208165549577e+000 2.4529404920942094e-001
      -2.1519453808872613e-001 9.5707457719204636e-001
      9.8629787251415713e-001 1.6088679194708242e+000
      -2.0267326605746554e+000 -1.1825341738631756e+000
      8.0622259485706382e-001 -2.6590849792556905e-002
      -1.3002324790325535e+000 4.9651242809064317e-001
      1.2359531475547891e+001 1.5151020016690764e+000
      7.5706743257025844e-001 -2.6932548418833292e-002
      1.6349651175347966e+000 2.2929630475638452e+000
      2.2795747543904969e+000 9.5519397675912987e-001
      -8.9144566684079177e-002 -1.2051121723566998e+000
      -5.7921982536228334e-001 -2.3071637860618863e+000
      1.1115963257796795e+000 6.9930249431685665e-001
      -2.3390809549236488e-002 -1.9060278819516803e+000
      -1.7440170243179431e+000 1.2081438397821925e-001
      -1.1026221898641375e+000 1.0365243973823577e+000
      -9.1679408021846043e-001 5.3639818197394273e-001
      4.4600866169318748e-001 -1.7995926381745048e-001
      -6.0117800605231131e-001 2.0388771402177008e+000
      -3.7686051931876818e+000 4.8272139402267502e+000
      -8.0861172417850624e-002 -2.3200336449191675e-001
      -2.0493325943670908e+000 -1.9355012052465250e+000
      -1.2166415338924941e+000 3.1699233485000466e-001
      -1.2573093604952654e+000 -6.6317614023790394e-001
      -1.8362959642300111e-002 1.2654557907530592e-001
      -1.3311255167748923e+000 3.6185262787554862e-001
      1.4730185112606453e-001 7.9228343598432815e-001
      1.1084288236058728e+000 -1.2891281362105784e+000
      -1.4634540694720197e+000 5.6434346699016458e-001
      9.6066049032682455e-001 -1.5454977787356499e+000
      2.4027051161046697e-001 1.8173915964678788e+000
      2.8471232716123640e-001 1.7003948067616084e+000
      1.2469024548208480e+000 -7.4820295678120274e-001
      1.1122843481510254e+000 -2.0527074099599121e+000
      -2.2852680006291323e-001 1.1582476642452119e-001
      1.2365425785062003e+000 4.8469484739177721e-001
      5.1403309330115450e+000 2.6343490457207031e-001
      3.6636675176665352e+000 1.1349068364718928e+000
      -3.4306561500034261e-001 -5.8135933988458233e-001
      -7.7908799401704187e-001 -5.4181011870117557e-001
      -6.1911986175948579e+000 -1.6765034128347245e+000
      -4.5815126675552847e-001 1.0916576774778207e-001
      -2.2922504037701801e+000 -1.8829634577923846e+000
      -1.2919293425015679e+000 -1.2337772972521374e-001
      2.8093494844849881e-001 4.1801251782323484e-001
      -1.3246904159760793e+000 2.6201275480028006e+000
      1.0213805244986531e+000 1.7980276479363511e+000
      7.1142575707642097e-001 1.0051118140844613e-001
      2.5907091109994727e+000 1.0787559177345183e+000
      9.9793244516887125e-001 -1.4629891841624343e+000
      -2.1536935289827621e+000 7.5637420837673819e-001
      1.1585606549587855e+000 1.4183383587277145e+000
      -6.3501952580613841e-001 2.5057361286100316e-001
      -3.2109408528172887e+000 -1.8048573568425814e+000
      1.5825731497482690e-002 -7.3406448249874234e-001
      -9.3841158919968759e-001 -2.9189709326876585e+000
      -4.5495923185821402e-001 -1.9905253453893354e-001
      2.9056716222766443e-001 1.7291932966734513e+000
      2.4113274941366640e+000 6.5050909167035387e-001
      7.9622707036325990e-001 9.7403427729210557e-001
      -1.0204418059698623e+000 -3.4337078806252180e-001
      -1.1524996827339018e+000 -1.2534575704806555e-001
      8.4506676506377165e-001 7.0830668724870660e-001
      -3.4940054166338091e-001 -2.8592343109967483e-001
      1.9434030603133223e+000 1.4801591773884351e-001
      2.0601331346404178e-001 -2.3000158306821569e-001
      -2.8567068997479423e+000 4.0137668656196862e-001
      -1.0188499390369532e+000 -1.1176627920938245e+000
      9.5243088569886403e-001 9.2519559620523062e-001
      2.7979553795212460e+000 6.9944861088981092e-001
      1.4942178956720167e+000 4.4095095795423633e-001
      -7.5109123473891071e-001 -2.5528157357660081e-001
      8.3981435517744008e-001 1.9571589912309624e+000
      -6.0020331740061139e-001 -1.2725553735475277e+000
      -3.3592633293983498e-001 -1.5257508184997555e+000
      -1.2599091849392701e+000 -1.5291083989787755e+000
      1.0675398773045337e+000 -2.1784452660300757e+000
      2.3364592037426970e+000 -2.8334217726345576e+000
      7.7449351096103225e-001 7.8834074297124224e-001
      5.1504516539321648e+000 -1.0732766063573017e-001
      8.3462735941646027e-001 3.7479483007669401e-001
      -3.5047610347958349e+000 -1.6168834036294946e-001
      9.6872635931020279e-001 6.5488995650655513e-001
      7.9502514436863370e-001 -2.5112758053044395e+000
      3.5633951615533621e-001 1.6598290459445042e+000
      6.6310842018270988e-001 -3.2404997556152835e+000
      3.9223713574739300e-001 -4.8123004967221611e-001
      3.5900747568490649e-001 4.3196284866393997e-001
      -4.9815436966138538e-001 -1.7202383179610561e-001
      7.0892738519807097e-001 -1.0135412900151020e+000
      7.7795355233464231e-002 -3.7383629077379499e-001
      3.2171080047372497e-001 -4.3332378497359514e-001
      1.1282682790366036e+000 -7.9717968230654623e-001
      1.3938560280567842e+001 -2.3225022381816993e+000
      -6.8232276822396356e+000 2.9267808354966435e-001
      2.7917235032320020e+000 -7.5043594722991602e-001
      2.4888132912575336e+000 -5.6617333676206416e-001
      2.1656040448564897e+000 8.0949936828281854e-001
      -1.7566078478827627e+000 -4.4105483175375138e-001
      -1.3431269073289566e-002 9.5142144889703884e-001
      -1.4976427602862712e+000 -7.7549956234977602e-001
      -6.9404745141944113e-001 -3.7550634727046801e+000
      -3.6523355660031231e-001 -3.7742570540887938e-001
      -1.0546730842387491e+000 7.0205629086400123e-001
      1.5121636111711256e+000 -2.5906151665873756e+000
      1.3683152118292732e+000 -1.0377121295858083e+000
      -5.7620045813764085e+000 3.0269977914524876e-001
      -1.3726515683345155e+000 -2.4508345525393810e-001
      -1.5066507166253982e+000 6.6873366968214798e-001
      4.2589909209041608e+000 2.2879900341349804e-001
      -3.3770078135600317e+000 1.5156477776400812e+000
      -1.0139173994536750e+000 -3.9191221825400524e-001
      -3.9372839144311572e-001 2.3707257350495268e+000
      -3.5070476192607791e-001 1.6984607856410843e+000
      -9.9840505166905669e-001 -4.4990108812942570e-001
      -2.1303150066224905e+000 5.9388682964737372e-001
      2.6946934474980537e+000 3.6459573376262613e-002
      1.6956273768719845e+000 -1.6612331267133209e-002
      1.0402626159755959e+000 2.2412130694659265e+000
      -3.0676093211403399e-001 -6.1196150435009233e-001
      6.6840531443371909e-001 -4.3238779472958502e+000
      1.2596679056512812e+000 -2.2624710526282672e+000
      -1.8083983202198517e+000 -3.2220365636086462e-001
      -1.8333555086297595e+000 1.8630741372001512e-002
      5.3231288947701738e-001 -6.7181776598890486e-001
      -1.2862935490749186e+000 4.8419389323889450e-002
      1.4196184644107650e+000 2.3345904274616958e+000
      1.7849411868529941e+000 2.7859620136486712e-002
      -1.2129003462615374e-001 9.6373602893431209e-001
      7.2318176060760131e-001 9.5135429858456055e-001
      -3.7346559052994999e-001 2.0580853412859434e-001
      7.9421509777529375e-001 -1.6152324749106184e+000
      1.3366450123052565e+000 -8.3579413465806607e-001
      1.5612220978546474e+000 -5.6969392201625835e-001
      -1.1741959471032955e-001 1.4001581791572719e+000
      -2.2847270412944836e+000 -6.3923368472506603e-001
      -8.6823974155876105e-001 -4.5023109301291520e-001
      6.5593386680368537e-001 1.0573266855641765e-001
      1.2340101063019957e+000 1.6218601225451927e-002
      1.0011008207573839e+000 -4.7905742865364914e-001
      2.7373466488758402e-001 1.1329447070838941e-001
      4.0767797412422646e-001 -3.1296000294340753e-001
      5.1978515860632901e-001 8.2261437313366670e-001
      -5.0222078295368067e-002 -1.4654019232399726e+000
      5.6522437217742727e-001 -5.9088240616495813e-001
      -4.1290231172945185e-001 -1.9198375446849720e+000
      -1.2245966079854868e-001 -8.6486401575552285e-001
      1.2222088131497735e+000 2.2368957346998927e-001
      7.4132453873392889e-001 -1.3725707731806989e+000
      -1.8210025251298445e-001 1.3654809579323826e-001
      1.5160061113387469e+000 3.4406768488906270e-001
      -1.8191028686517332e+000 -2.7173039079835354e-001
      -1.8451620495810583e+000 -1.0287592018217941e-002
      5.9832548466335256e-001 -6.7811526388532961e-001
      -1.3213480258308024e+000 4.6452662719184204e-002
      1.4347060103431011e+000 2.2570791979997278e+000
      1.7684449364726664e+000 2.6477890237203250e-003
      -1.0564497300981369e-001 9.4224437227502378e-001
      6.8758328846770655e-001 9.7347977372487393e-001
      -3.2409236680608322e-001 2.1972548620223570e-001
      7.4654048318394328e-001 -1.6182807634589762e+000
      1.2893660389531665e+000 -8.2187968494152563e-001
      1.5413317753302955e+000 -5.5360450782658455e-001
      -8.8177304466479769e-002 1.3717975016627388e+000
      -2.3274431596425620e+000 -6.4550823959919013e-001
      -9.2248920302904225e-001 -4.2685754049581259e-001
      6.2553830652526288e-001 1.4069112033175790e-001
      1.2239819085304551e+000 6.4424186681838302e-002
      9.4737372321599655e-001 -5.1378552514891818e-001
      2.1717114681055852e-001 1.7813559893154524e-001
      4.0327884323384633e-001 -3.4367753638787435e-001
      5.5333119199664360e-001 8.2911862121379920e-001
      -4.4148658492025247e-002 -1.4205192829059785e+000
      5.2434855102186773e-001 -5.4537163687235579e-001
      -3.7221859469481905e-001 -1.9110425422713817e+000
      -1.2218480482956286e-001 -8.4481666451588222e-001
      1.1581206863380507e+000 2.1751287360147037e-001
      7.1954823574879989e-001 -1.3830751219687476e+000
      -1.7719125993389773e-001 1.4410180910531115e-001
      1.5258983069678040e+000 3.4044516851420425e-001
      -1.7977433850748645e+000 -3.3336499305245776e-001
      -1.8550919693295891e+000 -7.6959870127065082e-003
      5.5123195813107628e-001 -6.7265420845077850e-001
      -1.2928668627808482e+000 2.0857723400009808e-002
      1.4193628130194418e+000 2.3019732271744324e+000
      1.7872220097156564e+000 -4.2038175428929805e-002
      -1.4893668605238278e-001 9.7395142680981894e-001
      6.4044297064115085e-001 9.8320803661950562e-001
      -3.2872445839350661e-001 2.7261936074248022e-001
      7.5270064908716972e-001 -1.6391262875091435e+000
      1.2897097993236961e+000 -8.3798197536900110e-001
      1.5197067868742486e+000 -5.4392654943933350e-001
      -9.8543054692172491e-002 1.3912652572037221e+000
      -2.3581167215905996e+000 -6.0410615527311851e-001
      -8.8863081824494583e-001 -4.6630169681120415e-001
      6.1438140139652586e-001 1.7221109935621134e-001
      1.2379668455747432e+000 5.7471063048383966e-002
      9.6864524110248973e-001 -5.2891940504517043e-001
      2.8174541419456622e-001 1.6181614835528757e-001
      4.4152071712225271e-001 -3.0827521338691155e-001
      5.5701965344179205e-001 8.1123310601096155e-001
      -1.0987921145187222e-001 -1.4100449191218030e+000
      5.4580862185606183e-001 -5.6561055513996195e-001
      -3.4419021943038469e-001 -1.9792987353983711e+000
      -1.0944177941468265e-001 -7.8583756025041873e-001
      1.1981640533796609e+000 1.7333186500972786e-001
      7.7997636450904895e-001 -1.3484834795495673e+000
      -2.1549557449905155e-001 1.5431891571843032e-001
      1.4841094538992177e+000 3.7927502202393248e-001
      -2.8748379820176339e+001 9.8456687001391416e-002
      -3.7745240371049865e-001 1.6259105198786342e-001
      -6.2259863275949545e-001 3.5778033047359031e-001
      1.1825905730641630e+000 -9.1433767924245218e-003
      8.9945764159545616e-001 -9.8320355127816017e-001
      -4.1370820481213006e-003 -7.5099812660087317e-001
      7.5338513524600548e-001 1.5055083471253314e+000
      -1.4683977128122918e+000 4.2659165749050865e-001
      2.2456616342601228e+000 2.8683532561254044e-001
      -9.7488616741942147e-001 5.8314870412507436e-001
      6.7964802408984684e-002 1.3180751193082052e+000
      -2.1286105928709373e+000 7.1454142620989181e-001
      -2.2123532919090789e+000 -1.0229913367776877e+000
      6.7115564760245050e-002 1.2820340539433217e+000
      1.6666474243526639e+000 1.5870566068641880e+000
      1.4015364391317371e+000 -4.6091717713069975e-002
      -1.8665538286745467e-001 -7.9523780571157932e-001
      -1.4353349994577758e+000 -5.5695053686127337e-002
      -1.0828118882314537e+000 -1.0563409034572711e+000
      -1.1522365279376039e+000 2.1597811850456012e+000
      1.1892750047779825e+000 9.5506384998239979e-001
      -2.9851239235835170e-001 5.2079382352781178e-001
      -1.6314566713957011e+000 -4.2825972198865692e-001
      9.5559885878244000e-001 7.0918531287156883e-001
      4.0140811215776562e-001 -3.8389227369186646e-001
      6.2623453165896925e-001 8.6292519317650296e-001
      -2.8535646618263838e-001 -1.7940480537493789e-001
      1.0762195763635454e+000 -2.0355066789980896e+000
      -1.4462880659260386e+000 6.0254595559632873e-001
      -2.8681689477399772e+001 1.2575135769992871e-001
      -3.1928148553195040e-001 1.1319268242388970e-001
      -6.2993967048610067e-001 3.5546497341310962e-001
      1.1877975267411962e+000 -3.5385750630639486e-002
      9.4658326668699688e-001 -9.4483531094980189e-001
      -2.8920004689917008e-002 -6.9434418214503535e-001
      8.1424770689020920e-001 1.4861498732683480e+000
      -1.4443992861571719e+000 4.4266327312223797e-001
      2.2276556565851422e+000 2.7296743362243558e-001
      -9.8863606868081444e-001 5.3812865469609716e-001
      8.0529078838150317e-002 1.3367516358840350e+000
      -2.1488285375927099e+000 6.7189338874509341e-001
      -2.2266141716965620e+000 -9.7187761899347302e-001
      7.4638638963160975e-002 1.2251382455121700e+000
      1.6915329180449987e+000 1.5443419881831078e+000
      1.4296462493797122e+000 -6.9918173075507281e-002
      -2.0255758288168932e-001 -7.4511870581455730e-001
      -1.4011277668560864e+000 -1.1289611582356597e-001
      -1.1038351457961975e+000 -1.1065636655997884e+000
      -1.1339624793900345e+000 2.1705325956721389e+000
      1.1324647986646086e+000 9.2660235215550268e-001
      -2.8407779512350934e-001 5.1729778200876653e-001
      -1.5604327956319464e+000 -3.8672065693871732e-001
      1.0072579124183170e+000 7.6719892566615555e-001
      4.8102612166691483e-001 -3.8923572011843266e-001
      5.7682320480855576e-001 9.1710934405695244e-001
      -3.1047849167255775e-001 -2.1741451299007444e-001
      1.0327682253833450e+000 -2.0302825107413716e+000
      -1.4049199047171526e+000 5.9965078858166909e-001
      -2.8716790082223341e+001 1.0832344587913736e-001
      -3.2882679199327164e-001 8.1512409971032082e-002
      -6.2493220826663154e-001 3.8272369315852567e-001
      1.2539376746165383e+000 -3.7365846005652049e-002
      9.4196974147219348e-001 -9.6449759971575821e-001
      4.1594840030691662e-003 -7.2261773926119721e-001
      7.7358532147586478e-001 1.5288064170095388e+000
      -1.4723616208155339e+000 4.6487583132292526e-001
      2.2816728851533297e+000 2.4312755387989027e-001
      -9.1980959849828514e-001 5.9194616893900920e-001
      1.1467541105852179e-001 1.2810775569285389e+000
      -2.1151665877541652e+000 6.7380685317596856e-001
      -2.2182549889462542e+000 -9.6799821933112051e-001
      8.0806102638605937e-002 1.2221163458246265e+000
      1.6139950751195382e+000 1.5967746135272842e+000
      1.4469289176379803e+000 -5.4495344061831333e-002
      -1.5192792748717815e-001 -7.9828289518032702e-001
      -1.4519539343420691e+000 -1.0104798443704523e-001
      -1.0903724436083921e+000 -1.1039542255378902e+000
      -1.0893161033544849e+000 2.1171512333646367e+000
      1.1172758068119710e+000 9.9105626346822717e-001
      -3.2336874037374574e-001 5.0946759765801775e-001
      -1.6130200808504316e+000 -4.1919121242836699e-001
      9.9795131509898982e-001 7.6284831579608903e-001
      3.9675919968662210e-001 -4.5164216240691918e-001
      5.8196718391337454e-001 8.8445522838153301e-001
      -3.0507387311833339e-001 -1.8804244774959458e-001
      1.0377638259286959e+000 -2.0175554511206890e+000
      -1.4244886361077509e+000 5.7829120683337576e-001
      -1.9873432585577913e+001 7.4036960982989397e-002
      4.4124518977453003e-001 -6.9462169282554539e-002
      5.1931790082202278e-001 6.9722799603657259e-001
      9.5097719403945979e-001 -1.8631331857535607e-001
      3.8509530327092584e-001 -1.4479704466784986e+000
      -4.0536171508101632e-001 3.1191518872690571e-002
      7.0139968481569628e-002 -1.1815809412655295e-001
      2.1917778183385417e-001 -8.7433566790200354e-002
      1.4853936103860532e+000 1.6071821478592565e+000
      -4.7718684282742968e-001 1.6512466743639131e+000
      1.1379277254317138e-001 7.3052997663362418e-001
      -1.0426324386487325e+000 1.2753394013318313e+000
      -8.5870221332358831e-001 -1.3730589066814587e+000
      4.7582760932107715e-001 -6.1659075345822079e-001
      2.1032767523159763e+000 1.3875274465451659e+000
      4.4719231610379767e-001 2.7335981026507289e-001
      -2.7281528571973990e-001 -6.9617589970479143e-001
      -1.3298629321330835e-001 9.7999551513654615e-001
      -1.5078913244597805e+000 4.1081368638030336e-001
      -1.9595161935494230e+000 1.8022827490184397e+000
      3.4143649255853953e-001 -3.5566417541498925e-002
      -2.4607425981125844e-001 5.2034946624249800e-001
      -1.0959210540852156e+000 -7.8854271482076654e-001
      4.8727082077466416e-001 2.3103533193457274e-001
      -3.6877128799714709e-001 -2.2192017619803442e-001
      4.8683359485911415e-001 -5.5786240038048829e-001
      -1.8448417933100676e+000 4.4678456946366990e-001
      6.9341045154419889e-001 -1.1687196731850720e-001
      -1.8361548611264347e+000 3.4979550651136820e-001
      -1.9886777869387114e+001 1.2163614178149779e-001
      4.7916306661965508e-001 -9.5939872625813175e-002
      5.3096129705876050e-001 7.0141117310766021e-001
      9.5880622865455822e-001 -1.9525350437537145e-001
      3.8243867577552176e-001 -1.4455496024874634e+000
      -4.1734421967333990e-001 3.9543561976653908e-002
      1.3286778932334821e-002 -7.2387831852325293e-002
      2.3948158833424510e-001 -7.7074091441491896e-002
      1.4718187730750512e+000 1.5618136168386825e+000
      -4.8527973729332657e-001 1.7062078652571921e+000
      1.0501500076365469e-001 7.6555526040006172e-001
      -1.0308889940024151e+000 1.3115539699819589e+000
      -8.3695275734443786e-001 -1.4243684560904382e+000
      4.7562062573174324e-001 -6.4886863870827660e-001
      2.0766413105052925e+000 1.3666002769379355e+000
      4.2454641480371208e-001 3.4386351442681734e-001
      -2.5666769380136817e-001 -7.3422991852966379e-001
      -1.5644488688827179e-001 9.8545699878251181e-001
      -1.4473107438340509e+000 3.6435334346393500e-001
      -1.9455803603225417e+000 1.8311835905012863e+000
      3.3098447066305209e-001 -1.2838980701458105e-002
      -2.6641962806842207e-001 5.6140925417437326e-001
      -1.1063599799765684e+000 -8.0988690174810329e-001
      5.3950330205549035e-001 2.4603403969039608e-001
      -3.6955569219926965e-001 -2.2623325170153966e-001
      5.0636218547543510e-001 -5.1967306193825691e-001
      -1.8425633187975787e+000 4.4807370184748502e-001
      6.8127401163629109e-001 -1.2640613253075397e-001
      -1.8335899798829303e+000 3.1174845315612826e-001
      -1.9873882717877823e+001 1.4726759962580710e-001
      4.5080666843671807e-001 -8.5693244383614961e-002
      4.8041323163298183e-001 6.4564673355274338e-001
      9.5402925723459187e-001 -1.5251856236900271e-001
      4.4338543784954404e-001 -1.4410719722781076e+000
      -4.1437605278940892e-001 1.6073609643991616e-002
      7.5920544378403593e-002 -7.5992418352986105e-002
      2.8694081790991410e-001 -3.0739518055923006e-002
      1.4831004169176543e+000 1.6125458811394060e+000
      -4.6897449621339882e-001 1.6589489656795151e+000
      1.6779810768189130e-001 7.5250361097575458e-001
      -1.0564689339412936e+000 1.2677756624464964e+000
      -8.4658421810110973e-001 -1.4058923979810491e+000
      4.9925018351658301e-001 -5.9515566161930600e-001
      2.0667852802153841e+000 1.3728362374642427e+000
      4.6345134815877437e-001 3.3583286608213864e-001
      -2.4074619219415225e-001 -7.4838410225652530e-001
      -1.2769201155157428e-001 9.5002978920906100e-001
      -1.5038097792127056e+000 4.0986083400403706e-001
      -1.9771552731458080e+000 1.7858431674742841e+000
      3.3785951818219501e-001 -2.4970959431179444e-002
      -2.7998932860846509e-001 4.9943799636155445e-001
      -1.1004230725855040e+000 -8.0429616293956718e-001
      4.7489379547570371e-001 2.9423677831884987e-001
      -3.9816795933655169e-001 -1.9069855777505401e-001
      5.0039991117522054e-001 -4.8793560686535542e-001
      -1.8397657555463414e+000 4.3228721582398361e-001
      7.0021091724723894e-001 -1.2726710258932830e-001
      -1.8181349884779592e+000 3.5565256333439027e-001
      5.4537090649134914e+000 -8.0139972715789498e-001
      9.5883548735677260e-001 1.9368475046112760e-001
      -7.7498921997583736e-001 3.1569950646149614e-001
      -9.3529638732057485e-001 -1.3419353727036110e-001
      1.0025868938891451e+000 -6.0352475401999561e-001
      3.0412298675166188e-001 7.1482137540639434e-001
      1.2731858738954829e-001 -8.4600029465124307e-002
      3.5319824623725482e-001 5.0316856629150597e-001
      -4.4195946257056601e-001 1.1952959073697060e+000
      5.1397731038317329e-001 -1.0360754241982777e+000
      2.2564090859966917e+000 -1.0257007968044147e+000
      1.3463560291314784e+000 -1.3522307378979448e-001
      -4.1177904725465964e-001 2.6579935237366781e-001
      -3.0871319567161998e-001 3.1524229206202276e-001
      1.6209350858188445e-002 2.8808633731177424e-001
      -1.5017815736873991e-001 -8.6464155608558982e-002
      5.7851417001108218e-001 7.0998005104067052e-001
      -8.7827373222402166e-002 -1.1346622726993962e+000
      8.6416676483911781e-001 -3.6580117056682082e-001
      3.9113989043592257e-001 -5.3077327942111863e-001
      3.8934846023545683e-001 -1.2527508430188008e+000
      1.1687675521431635e+000 3.9175797303575538e-002
      4.9967850760319710e-001 -4.4720983766682715e-001
      -1.4096385700332494e+000 -2.1031209092652517e-001
      -9.3091824764732711e-001 -6.7155239795919597e-001
      6.9802642975958662e-001 -5.6090822784402150e-001
      -4.7313353544388881e-001 -3.7135945906849804e-001
      -1.4659743584712412e+000 2.4671432906281328e+000
      1.5177098507606681e+000 3.6249096740938164e-001
      5.4737010408904485e+000 -8.2934346403123782e-001
      9.4778651586638329e-001 1.4763296106001800e-001
      -8.0750149826151796e-001 3.3989365282116368e-001
      -9.8540013329514164e-001 -1.4386164308912983e-001
      9.9057639467743464e-001 -5.9385913614034302e-001
      3.1869710033281112e-001 7.1839381918057788e-001
      1.1822466878080520e-001 -7.6314579936576935e-002
      4.1553327752837943e-001 5.0267753321982156e-001
      -4.5016695772369558e-001 1.2302460571078131e+000
      5.7701325147052740e-001 -9.8286975823924083e-001
      2.1792312547029398e+000 -1.0404427440877391e+000
      1.3637776709774314e+000 -1.8549914008014146e-001
      -3.8210231249990345e-001 2.7082455848032072e-001
      -2.9877568302287244e-001 3.0883461015196984e-001
      5.1496259025630688e-002 2.2539533225442290e-001
      -9.8130562707609684e-002 -5.3780785298617156e-002
      5.3031433317542687e-001 7.5904127688624012e-001
      -4.0946023499876839e-002 -1.1329911282374621e+000
      8.7106997757857396e-001 -3.6976741627132037e-001
      4.1690621561765107e-001 -4.7506271314767817e-001
      4.1100582554105680e-001 -1.2657324538128867e+000
      1.2094235742221380e+000 7.2953220461303689e-002
      5.2493902511911505e-001 -4.0099582528508820e-001
      -1.4378904089128020e+000 -2.1137753510067522e-001
      -9.5033200284118491e-001 -6.6410973059471323e-001
      6.7836278401226568e-001 -5.7709581822950662e-001
      -4.6930883509317378e-001 -4.0393164030830880e-001
      -1.4555847296503202e+000 2.4866418434084507e+000
      1.5013716990040451e+000 3.9594587211107984e-001
      5.4679953965686945e+000 -8.2664435400207203e-001
      9.8811917411600869e-001 1.5654834144823893e-001
      -8.0533751384257946e-001 3.3510894411799574e-001
      -9.5452007108632797e-001 -1.2995106163657560e-001
      1.0400390337748411e+000 -6.4765469287992017e-001
      3.0046768843226074e-001 7.3518329240788893e-001
      1.3824206886709581e-001 -8.2399053164498096e-002
      4.2023676446044855e-001 5.2062460113928410e-001
      -4.5574646208760677e-001 1.2024071316490190e+000
      5.1770073710640130e-001 -1.0209241239790252e+000
      2.1944773943461873e+000 -1.0540693359845723e+000
      1.4041671908523325e+000 -1.8211598602957157e-001
      -4.0733196563881535e-001 3.0582146457374382e-001
      -3.3352679382373823e-001 2.9365103962227096e-001
      5.2106824485431670e-002 2.8733978241895469e-001
      -8.9089524288590197e-002 -5.4588996395555187e-002
      5.9432159243455229e-001 7.7105296549735913e-001
      -5.5154752725846738e-002 -1.1178302525199515e+000
      8.8771681987271722e-001 -3.3904909937159500e-001
      4.4648463256458104e-001 -5.2167542655460419e-001
      3.4838593545239210e-001 -1.2114491373027643e+000
      1.1592484182588301e+000 4.5407768481307259e-002
      4.9635360673910528e-001 -4.5953829876746477e-001
      -1.4518205963606168e+000 -2.0376437541483303e-001
      -9.2324440996981794e-001 -6.2450821503222009e-001
      6.8770647603921820e-001 -6.0565701535890948e-001
      -5.1267341397763355e-001 -3.4421179938428176e-001
      -1.4529845126695373e+000 2.4083503214773683e+000
      1.4507072097421130e+000 4.0005758095787797e-001
      -2.1531773558584099e+001 6.8688634547589045e-001
      4.6541320205038356e-001 -1.4673425157313560e-001
      9.1610206709283404e-001 8.2636736493614382e-001
      2.7356054265193547e-001 1.6812187944137238e+000
      8.0282006457560184e-001 9.8879418677461295e-001
      5.9298857069805422e-001 -7.4908228843668012e-001
      -6.5347864048804560e-001 -1.2384835966285057e+000
      1.2540099068125637e-001 -4.7921248841431641e-001
      -4.5714490677571307e-001 -5.2118292043108827e-001
      -6.8906224592652321e-001 5.5751598948199921e-001
      -4.9143740298028138e-001 -2.8243299734992833e-001
      -1.2124677281988614e+000 1.5892069577705463e+000
      4.0446168754793821e-001 5.7019675694541816e-001
      1.7318745252161877e-001 -8.0264701235689828e-001
      -5.8391162876505232e-001 1.7231370231059615e-001
      -5.5529067392289699e-001 -1.1629826861573588e-001
      -4.5537953649154783e-001 -2.8937553033927393e-001
      -2.4441786755515643e-001 6.4254325288746406e-001
      -1.0698301347813024e+000 -9.2310921796370196e-002
      -2.4528618383116499e-001 -4.8556253366972024e-001
      -1.1224880568201565e+000 -4.9109107558779197e-001
      -4.7283781037930361e-001 -1.6554284075676279e-001
      5.8013462053708320e-001 5.9266296080070058e-001
      -1.4856942434084755e-001 -7.4667004551391414e-001
      1.4401344159775307e+000 1.6707909777562757e+000
      5.1394500739555271e-001 1.4726020552872421e+000
      6.3000505059109979e-001 -8.4891040097389525e-001
      1.5168084862433771e+000 5.7986850458629446e-001
      -3.5491324469241287e-001 3.3987889441192132e-001
      -2.1519908459850598e+001 7.0795458554134849e-001
      5.0057288792728516e-001 -1.0914884350339672e-001
      9.3602783366756859e-001 8.2190211318253570e-001
      2.9151618315949668e-001 1.6901143849380615e+000
      8.2154696510046810e-001 1.0268930089541037e+000
      6.2565876783729046e-001 -7.4226232254058355e-001
      -6.3477076045937497e-001 -1.2946945050345624e+000
      1.2955032561282748e-001 -4.7844215082761277e-001
      -4.4720194282199521e-001 -4.7645979275468875e-001
      -7.1487152988868052e-001 5.6320338680177362e-001
      -4.8550683973458442e-001 -2.6997650493975106e-001
      -1.2749507079431408e+000 1.5578130734817646e+000
      4.3689589792470074e-001 6.3871050812696295e-001
      2.2931486319427169e-001 -7.9945368780932013e-001
      -6.2179663264110685e-001 2.2075609294547904e-001
      -5.0046392686704688e-001 -1.0577198515395182e-001
      -4.1089840740275119e-001 -2.2297847736989859e-001
      -2.8440915945583400e-001 6.2880376850824915e-001
      -1.1407170401348179e+000 -1.1530527611853046e-001
      -2.0570087874993173e-001 -4.9063865153931041e-001
      -1.0786475113482692e+000 -4.9839020441659820e-001
      -4.3779809797753622e-001 -2.3414519379176035e-001
      5.4425896979577404e-001 6.5715495744371943e-001
      -1.9632023683447083e-001 -7.6577114782423950e-001
      1.4535574573085546e+000 1.6269369411332462e+000
      4.9179526956145847e-001 1.4795613445461253e+000
      6.4921179049987077e-001 -8.8260639632435511e-001
      1.5072084039343607e+000 5.6816617503641831e-001
      -2.8904499873401884e-001 2.9952586976354023e-001
      -2.1529817290080864e+001 6.5338387654171659e-001
      4.7917355406555701e-001 -1.3940978721512695e-001
      9.8435148219316104e-001 7.9360677990554351e-001
      3.3065275015684892e-001 1.7265846948185748e+000
      8.4392348600624945e-001 1.0011837430965274e+000
      6.1935358101296401e-001 -7.9018533927367263e-001
      -6.3730206790927457e-001 -1.2434852362192053e+000
      1.2345103387276672e-001 -4.7237241486320236e-001
      -4.7957235215006550e-001 -5.1591320891866854e-001
      -7.0859983163555440e-001 5.6456034462232529e-001
      -5.1022862697807081e-001 -2.8240904668747846e-001
      -1.2312965615354576e+000 1.5993965647609256e+000
      4.1626029093364136e-001 6.0304568646178480e-001
      1.6695629158329894e-001 -8.5453763812937966e-001
      -6.2725870814808893e-001 2.2040416275286429e-001
      -5.5433904949199786e-001 -1.1543806581737752e-001
      -4.2527074622962580e-001 -2.4809992312615062e-001
      -2.6111337422094394e-001 6.2293226751033315e-001
      -1.1303106246672752e+000 -1.3306585267111939e-001
      -2.2874077934317891e-001 -4.9937448235676318e-001
      -1.1181040069975081e+000 -4.8197871826596828e-001
      -4.2195597796709161e-001 -1.6509924661963649e-001
      5.5494644964195095e-001 6.3045955497279071e-001
      -1.6527496393176969e-001 -7.0067895690700599e-001
      1.4354442681623838e+000 1.6418617549581223e+000
      5.0134505714892219e-001 1.5278504328282594e+000
      5.9361742016558539e-001 -8.1952256297456794e-001
      1.4890585579020053e+000 5.8492731144721877e-001
      -3.1584322171753804e-001 3.6966909213682442e-001
      1.8008361853342361e+000 1.6260401260470811e-001
      -2.3508694576756120e-001 -6.0405140153857902e-003
      5.8486269075651320e-001 -3.7166611230672532e-002
      2.6719256271972587e-002 -1.4796838579176000e-001
      7.1129208262124999e-001 -7.6547230071780367e-002
      -2.1054881316429103e-001 6.6449675511769501e-001
      -3.0234977755210435e-001 -1.3855808969509964e-001
      9.6326113610927810e-001 -3.8317430660742513e-001
      7.2890779775706016e-001 1.7515706211323206e-001
      -2.5230992803939933e-001 3.9489619859334169e-001
      -3.2796334339075173e-001 -3.0162619311709177e-001
      7.2619571533243188e-001 2.3438617536746819e-002
      2.8663927424977065e-001 -8.7035008734556818e-001
      -2.5800619651578105e-001 -6.8915501065062301e-001
      -1.4324857429102902e+000 2.0563727760267578e-001
      1.2123547484751369e-001 1.4537310406346135e-001
      2.6582057398814324e-001 4.4842290494241559e-003
      -1.0411005036602781e+000 4.7493302604186932e-001
      4.1761561094611299e-001 -8.0837914415988399e-001
      7.3618950210847078e-001 1.3465049081449811e+000
      -4.3685345218706367e-001 3.7644530537195027e-002
      6.1650529808106724e-001 -5.4873271316040695e-001
      -1.0021961510878186e+000 -2.2978483508639819e-003
      -1.2901117820254622e+000 2.2604321582448902e-001
      2.9789007014914831e-001 -5.5273841153220515e-001
      -1.8467606336506652e+000 -9.5854290446829860e-001
      6.9975517426508504e-001 1.6548454717213941e+000
      -3.1669892104049197e-001 1.5238403630762989e+000
      1.8095067821859775e-001 4.1674279560674532e-001
      1.8092418334767217e+000 1.7902387709060827e-001
      -2.4284347059683811e-001 2.9104447631807823e-003
      5.6184852147919317e-001 -3.6625088108534834e-002
      2.7753315510304147e-002 -1.2267488925216985e-001
      6.7897529584255711e-001 -6.3348992103889765e-002
      -1.7886219056902783e-001 6.1930061405700365e-001
      -2.9776039685022493e-001 -1.8151253933639203e-001
      9.7696957643811866e-001 -3.8214848029183712e-001
      7.3514586722505082e-001 1.9697870002203433e-001
      -2.3240135566034498e-001 3.7290673984296852e-001
      -3.0008289504104363e-001 -3.3129655835436161e-001
      7.7386755491576253e-001 1.1653828876813405e-003
      3.0480380754806213e-001 -8.8936889040751466e-001
      -2.8156932653566491e-001 -7.3191629684947412e-001
      -1.4104006341467279e+000 1.7571703714653755e-001
      1.1275253329157564e-001 1.2063772943866688e-001
      2.4558367978078272e-001 -5.2657550281384753e-002
      -1.0774549501030353e+000 4.6027440059068608e-001
      4.2491560620429458e-001 -7.3929047566023942e-001
      6.9282973557871719e-001 1.3524639861593302e+000
      -4.4519156150282729e-001 3.2761884912857739e-002
      6.5873543546280700e-001 -5.3298827823559725e-001
      -9.6474579367650615e-001 5.4779141924573993e-005
      -1.2858368337330801e+000 2.2674481758725870e-001
      2.9089268078422820e-001 -6.0694151777968908e-001
      -1.8526446220838790e+000 -9.1175476026062663e-001
      7.0648550226269136e-001 1.6848287222330438e+000
      -3.8487918628668877e-001 1.5482468870582726e+000
      1.8376609635104990e-001 4.1664850572918266e-001
      1.8563375434462304e+000 2.0156488765370054e-001
      -2.0694285318035133e-001 -3.2688238017210040e-002
      6.2932717264561633e-001 -9.7579576244545593e-002
      4.6707409972594691e-003 -1.1856770131314096e-001
      7.2955913678522688e-001 -1.6961331512260935e-002
      -1.8908094539341297e-001 6.5465648269598065e-001
      -3.2004908901779461e-001 -1.3692747668536537e-001
      1.0189360674602470e+000 -3.8564898312385598e-001
      7.2481703899348493e-001 1.7926693174595471e-001
      -2.0820440509030497e-001 3.7185972121600253e-001
      -3.4199594886190365e-001 -3.0410282197422239e-001
      7.2253483011640296e-001 5.4850754995405426e-002
      3.1608144195326149e-001 -8.6224106050444349e-001
      -2.9631168601722097e-001 -6.7778866929500892e-001
      -1.4407878268011618e+000 1.9535215568108497e-001
      7.6077403596314985e-002 1.2838292062716578e-001
      2.5123201230126557e-001 -1.8465531955673704e-002
      -1.0993406242753889e+000 4.9177918478774268e-001
      4.8106132068804197e-001 -7.7730083037946684e-001
      7.1305339319429151e-001 1.3339579361354510e+000
      -3.9617135627997474e-001 7.6324457320526159e-002
      6.8519057529612004e-001 -5.0759983966862088e-001
      -9.6381143493816290e-001 -2.0889555192060701e-002
      -1.2310819818919305e+000 1.5610756057149519e-001
      2.7772947733535136e-001 -5.5356190210915424e-001
      -1.8444114427500800e+000 -9.6137146281425312e-001
      6.4773590001883463e-001 1.6879359214384835e+000
      -3.9395626366709607e-001 1.5734515662259352e+000
      2.1208233579347274e-001 3.7252180258345291e-001
      5.3654819838666716e+000 -2.9962815177567825e-001
      9.5633586528391024e-001 1.2406610049566839e-001
      -1.0307904603733418e+000 -8.3643196360143512e-001
      -8.6855851059765943e-001 7.6417068306118285e-001
      -2.5426784860122464e-001 -6.7133530022138788e-001
      -3.9149831751489189e-001 1.5672205365141165e+000
      -2.5186250718736470e-002 7.5422273210188906e-001
      -1.4911469915359645e+000 -8.2455218896856003e-002
      3.2856951546302338e-001 1.4470813678230995e-001
      4.6801296920066249e-001 -1.0992665526878563e-001
      -1.9965094297675079e-001 4.7939526947358196e-001
      -1.3066395334291758e-001 6.3959213191128128e-001
      -3.3192923512341099e-001 1.7472153469829150e+000
      9.4717047921374986e-001 1.4400644700732260e-001
      -4.4233339113577663e-001 2.8923459899145998e-001
      -5.5186936256760988e-001 6.7295889641139917e-002
      6.3611833952782648e-001 -6.6344157146046934e-001
      1.0344773164638037e+000 2.4337174069793925e+000
      4.3043770519239272e-002 -1.5363360029020906e-001
      -9.7215048461531572e-001 -7.5575083487466721e-001
      2.2296314521040292e-001 2.1295358385291130e-001
      6.6466074885850523e-001 -4.7913813305240927e-001
      1.3561338377774032e-001 5.5869575624086976e-001
      7.4635257550498868e-001 1.9785564788833912e-001
      -8.2344214540733973e-001 -1.0638701297122801e-002
      -4.3094936119485611e-001 -5.0741989939957877e-001
      -5.9633312558774942e-001 8.4659144925449104e-001
      -1.9276304597568714e+000 1.7885982362028163e-001
      7.7423142466779316e-001 -5.3014529436114211e-001
      5.3490140167046745e+000 -3.3180637341800168e-001
      9.9635715090671506e-001 1.7258320881077296e-001
      -1.0031498319221956e+000 -8.6438279285304398e-001
      -8.4384582490647286e-001 7.7037607650086548e-001
      -3.0143556032417951e-001 -6.1368140425142836e-001
      -4.5094556561089966e-001 1.5825631138598273e+000
      -6.5263533457083786e-002 6.9472726437443666e-001
      -1.4620023434573111e+000 -3.6238766558560759e-002
      3.0624928756331338e-001 1.0643067570082228e-001
      4.4325393546747960e-001 -9.9133591645147304e-002
      -1.6348651483623930e-001 4.3295059519812390e-001
      -1.7779800381629207e-001 6.3103259983997761e-001
      -3.2413824833024474e-001 1.7160010544414175e+000
      9.6155268181950326e-001 1.3883621831499088e-001
      -4.8185784503309881e-001 2.9597897623137814e-001
      -5.8748135445626493e-001 1.7736396299950826e-002
      6.3995676102311005e-001 -6.7025023230702807e-001
      1.0588311150048080e+000 2.4218413223860558e+000
      1.0055195530434075e-001 -1.7543206699738598e-001
      -8.9720568243344712e-001 -7.3831189367424910e-001
      2.0494221886436834e-001 2.1487919880501327e-001
      6.9485388525657998e-001 -4.4463749559132615e-001
      1.3562805508557027e-001 5.8699907663086526e-001
      7.3470783739078804e-001 1.9129215601865474e-001
      -7.6986923517300521e-001 1.7853131893987145e-004
      -4.0442436797414844e-001 -5.2318914593452204e-001
      -6.2124940220637270e-001 8.2561937731256574e-001
      -1.9325538699819433e+000 1.8355518377601954e-001
      7.5407891087217627e-001 -5.6144650037364874e-001
      5.3362809393688186e+000 -2.8745640316394699e-001
      9.3823604721467713e-001 1.9723912477145522e-001
      -9.9289050672912327e-001 -8.9208089934354795e-001
      -8.9728737242584922e-001 7.5448216131255530e-001
      -2.5449871314852290e-001 -6.2088943846450528e-001
      -4.4912184198394561e-001 1.5495620851696819e+000
      -9.1811384224999293e-002 7.1289163719526361e-001
      -1.4449328999469833e+000 -1.0645026592527101e-001
      2.8724826113942453e-001 1.4906744970508576e-001
      4.8316495858846809e-001 -7.8465355967020936e-002
      -1.6689786402968490e-001 4.9160407559116698e-001
      -1.6718687345970268e-001 6.1065803040951760e-001
      -2.9180427924194752e-001 1.6948282102873788e+000
      9.0224846792794178e-001 1.0950618785168734e-001
      -4.4161676651810489e-001 2.4650384302355877e-001
      -5.5812403066455718e-001 8.2787494385746896e-002
      6.7368759597285066e-001 -6.8757196153931166e-001
      1.0389995719937255e+000 2.4285696333767333e+000
      1.0285548991750194e-001 -1.8292521262184039e-001
      -9.6685132613386116e-001 -7.4771996779984595e-001
      2.0663905822917714e-001 1.6665900244738491e-001
      6.8236125304895201e-001 -4.8256592249666996e-001
      1.3795801189109710e-001 5.8991452672525313e-001
      7.2811096592117308e-001 2.2319622776370948e-001
      -7.9083771684732151e-001 3.0801219301561236e-002
      -3.8209595098748111e-001 -5.3186443776539039e-001
      -6.0326016842873342e-001 7.7294594399557659e-001
      -1.9133690933426659e+000 1.7978369152351972e-001
      7.6826183838260687e-001 -5.5190245444748476e-001
      -1.7586117449765105e+001 1.7828742715024593e+000
      1.0310383282032236e+000 -4.1101103231011862e-002
      -1.0896034850448695e+000 2.8838125352928784e-001
      -5.1692360394914416e-001 -2.2222696921562892e-002
      -6.8037578897290096e-001 -2.3919661684026719e-001
      2.5884623367906957e-002 -9.4326910558595733e-001
      3.3830734634984549e-001 -5.2766856565326603e-001
      -2.4481114831333362e-001 3.4248837517895404e-002
      -8.3514881338815838e-001 -1.9785276242606520e+000
      1.2984720706172999e+000 5.9140031869307141e-001
      -2.5814598574170535e+000 -8.5952466474371347e-001
      -1.4772321435907703e+000 7.6746842856321495e-001
      4.5669119049761098e-001 3.2060929633514668e-001
      8.0349664972333923e-002 6.6047066214293279e-002
      4.7627040033797557e-001 2.0023345571481907e-001
      1.4984364311788553e-001 -1.8406040539140614e-001
      -6.1137231753947467e-002 -1.4535213986086399e+000
      1.5999445684740961e+000 4.3129470547451643e-001
      3.8830038956528828e-001 -2.4433568913660741e-001
      -8.2463117660385027e-002 -1.6162226962874140e+000
      1.7889754048535164e-001 6.4569788882484980e-001
      5.8126484013089752e-001 -4.8726985244641452e-001
      1.2147536061667401e+000 1.1388533838561299e+000
      1.8053897908914229e+000 3.8443348696493884e-001
      7.5818906297156063e-001 7.6562441276263971e-001
      1.1463661678010816e-001 2.7444100715465430e-001
      1.0700098372788902e-002 4.7265658600673699e-001
      1.5021987535431431e+000 -1.0560794660098061e+000
      -7.8588798195287679e-001 -1.0161062269246888e+000
      -1.7581350883161541e+001 1.7790928883299686e+000
      9.9857135376423267e-001 -1.7208872605695365e-002
      -1.0515768108951009e+000 3.4587680228643697e-001
      -5.1135664755655730e-001 -4.1469753380773210e-002
      -7.2021844857571060e-001 -2.1304425322660062e-001
      -4.2773748554118307e-002 -9.1186584860220432e-001
      3.3638419257469276e-001 -5.3360490951191375e-001
      -2.3714353125360987e-001 2.3511139668813828e-002
      -8.8654551561485451e-001 -2.0361173540952389e+000
      1.2860125974850996e+000 6.1339319279224902e-001
      -2.6163253727919979e+000 -8.0911205861592406e-001
      -1.5283316141817522e+000 8.1219939129470253e-001
      4.6894831929114766e-001 2.7724364041526928e-001
      1.1269189765436100e-001 8.0767103620569200e-002
      4.4385506412696024e-001 2.4493865719347283e-001
      1.6175846875304165e-001 -2.1385568728059981e-001
      -1.0769101692359377e-001 -1.4649448626238784e+000
      1.5640214850772671e+000 4.0774836884327925e-001
      3.7338289396216068e-001 -2.4851214888860851e-001
      -3.5382732303572285e-002 -1.6699930251396666e+000
      1.6733483985067954e-001 7.2101430061705962e-001
      5.3891686979374875e-001 -4.5605883269401404e-001
      1.2179253693929855e+000 1.1686325048468096e+000
      1.7510252540121432e+000 3.4552029829091180e-001
      7.2967884554136631e-001 7.6367348406886415e-001
      5.8758071792976374e-002 2.6626424682890532e-001
      -3.6174104066661744e-002 4.6158357265896921e-001
      1.5182409339220115e+000 -1.0343022746766508e+000
      -7.8512380723068231e-001 -1.0276649593560225e+000
      -1.7584999009954146e+001 1.8330596090987896e+000
      9.9810154228184422e-001 -1.9586126446130375e-002
      -1.0572171378584569e+000 3.0210031549243282e-001
      -5.3196218110755233e-001 -9.2318590405947740e-002
      -6.6098394679132011e-001 -2.4855271967563056e-001
      -3.8306680870934626e-002 -9.0730971864457588e-001
      3.4376560214766216e-001 -5.8481306014952694e-001
      -2.3992435660544009e-001 3.1109469671142368e-002
      -8.8972613781508825e-001 -2.0074915907448925e+000
      1.3009294252097612e+000 5.9193360761924896e-001
      -2.5437700552813256e+000 -8.2559554544447289e-001
      -1.4774514130882359e+000 8.2389848356406770e-001
      4.5605948260356488e-001 3.1306744925935759e-001
      8.2481150923559121e-002 7.6170739322851441e-002
      4.1999011791080648e-001 2.3874428961907804e-001
      1.9431099974202620e-001 -1.8115917136117335e-001
      -8.9559653306544001e-002 -1.4631933793766241e+000
      1.6025480681828852e+000 4.0076997896324651e-001
      3.2137505881784473e-001 -2.8422634286164733e-001
      -2.2559816736987606e-002 -1.6316734823559784e+000
      1.3833592642606854e-001 6.6943416470082806e-001
      5.1458001240313067e-001 -4.5476373700483408e-001
      1.2105136783582704e+000 1.1141472952045162e+000
      1.7965325062711566e+000 3.3304740231410912e-001
      7.6755664667987378e-001 7.8157319807270920e-001
      9.2666509669160360e-002 2.6669227150548930e-001
      1.7571485362117466e-002 5.0023044432212860e-001
      1.4783652883590956e+000 -1.0218153586218961e+000
      -8.1136834202362285e-001 -1.0900887023768333e+000
      -2.4707917016256623e+001 1.0051361314903378e+000
      8.6536516512425676e-001 1.5766266302548099e-001
      1.2001394158220799e+000 -1.5031056445154367e-001
      1.7858997573186433e-001 1.2571395313560609e+000
      2.1418676928697050e-001 1.1830359843564361e-001
      1.3284017958097303e+000 -5.9888793614879310e-001
      -1.6185917357859256e+000 -2.5781897692067579e+000
      -1.5146186174619972e-001 -1.7925558062479072e+000
      -4.7996836525995290e-001 -7.6203710630256749e-001
      -4.6378307838890231e-001 6.2125134519834146e-001
      -1.9816566161939594e-001 1.2182443260350535e+000
      -5.2890087987556411e-001 7.9117340391927526e-001
      -2.7342260391556344e-001 1.1465513403505531e-001
      2.0566943737879906e+000 -5.9542850452418383e-001
      -4.5009624432451434e-001 -5.7495699107618037e-001
      -8.3684067852224508e-001 -3.1931659891619102e-001
      -3.0046623228858382e-001 1.3349367914291535e-001
      -7.0780221094328566e-001 5.1376135167257930e-001
      -9.8381026913997283e-001 4.5277883234433325e-001
      -1.0444539725342109e-001 1.3796807985658341e-001
      -3.4648627677894461e-001 -9.1537758878257836e-001
      -1.6694625653904669e+000 9.7859777344925902e-001
      -3.3026627701884353e-001 2.1401526583306656e+000
      2.0112866559853737e-001 1.3627431876332163e+000
      1.4192445850589261e+000 6.1614821272071651e-001
      1.2120155577190523e+000 7.2875321444596397e-001
      2.5738484115711269e-001 -1.6478003143852158e+000
      9.9180580563085119e-001 3.6730915993209906e-002
      -2.1210335914434306e-001 5.5252864366933080e-002
      -2.4669567893254182e+001 1.0222561946601680e+000
      8.7870911463059531e-001 1.2135807881478075e-001
      1.1460840637415370e+000 -1.0520410264611856e-001
      1.7747987604051543e-001 1.1947378254835237e+000
      2.0555190840232701e-001 1.3297719737371611e-001
      1.3152829983015561e+000 -5.8079872813858813e-001
      -1.5777482023543816e+000 -2.6143986471625364e+000
      -1.6593688736668202e-001 -1.7620747373326595e+000
      -4.2326129057863587e-001 -7.1863003350700727e-001
      -4.5381374385661810e-001 5.9106768983040792e-001
      -2.3082778503738619e-001 1.1887278419597915e+000
      -5.2427142578254493e-001 7.4701157269841523e-001
      -3.3465624240624486e-001 7.4324839242667057e-002
      2.0154879670438524e+000 -5.5956089647076923e-001
      -5.1549199711541227e-001 -5.8566317324181705e-001
      -7.8585427941019903e-001 -2.7570292313955808e-001
      -2.5040928742009738e-001 1.4004302358542572e-001
      -6.8088240102854003e-001 5.3914827984190350e-001
      -1.0025867167176934e+000 4.4292734881996298e-001
      -1.4566155685823992e-001 1.6907877344506286e-001
      -3.0877058374455413e-001 -9.3201581254828758e-001
      -1.7175546404827056e+000 9.9703051095975481e-001
      -3.3928469531308941e-001 2.0537990346504569e+000
      2.1718103387746063e-001 1.3651416050200196e+000
      1.4529794608674984e+000 5.9462921804582647e-001
      1.2380395914200530e+000 7.4928253530367772e-001
      1.8544571643542890e-001 -1.6768921913176040e+000
      1.0026859600384044e+000 9.8950844976252103e-002
      -2.0888099157608728e-001 -4.7830930556248905e-003
      -2.4653242537897320e+001 1.0725317686330031e+000
      8.2020446620494425e-001 1.1374949349581669e-001
      1.2000843555115339e+000 -1.0703617316039914e-001
      1.6246344962114734e-001 1.2202235847818499e+000
      1.8689624305832736e-001 1.4355848055268025e-001
      1.3749874058647380e+000 -5.8907180327060105e-001
      -1.6344634615552460e+000 -2.6179691648051184e+000
      -1.2652377637486825e-001 -1.8114239132852705e+000
      -4.2852104546396236e-001 -7.1245858965399211e-001
      -4.7016923279964573e-001 6.0701900215127069e-001
      -1.7120525257998839e-001 1.1785225833961950e+000
      -5.1327244417732776e-001 7.4766763071932751e-001
      -3.3098468098612871e-001 6.9844706689490083e-002
      1.9906809663148508e+000 -5.5273933429849897e-001
      -5.0543668867821412e-001 -5.8860049379882584e-001
      -8.0722041215345963e-001 -2.9828898190352271e-001
      -3.1162881473921578e-001 1.3630936543143055e-001
      -7.3073730492144129e-001 5.3401954359632364e-001
      -9.9504645688609727e-001 4.1979842043552590e-001
      -1.5198172144086944e-001 1.3983040172533631e-001
      -3.5132243864977619e-001 -8.8145832900614263e-001
      -1.6887854319879658e+000 1.0272232433747466e+000
      -3.4065307968754172e-001 2.1409671380546280e+000
      1.8120653626263084e-001 1.3410679051777425e+000
      1.4302244593224560e+000 5.8206065195507273e-001
      1.1634724047301557e+000 7.8745504967736391e-001
      2.3906224882092955e-001 -1.6340293922379665e+000
      9.6299036808049265e-001 1.1185885137097153e-001
      -2.1068631677127433e-001 3.7535237784570755e-002
      1.3532689734422862e+001 -5.5988289359953580e-001
      -2.0131647548209530e+000 -1.0257002879835163e-001
      1.3127245928138680e+000 -8.5791591294678571e-001
      -2.7966516342074066e-001 -1.1811450705769770e+000
      1.4078726443118403e-001 2.3977163544876573e-001
      -5.7258175795216582e-001 9.2221232257237806e-001
      -4.3803642756389266e-001 -4.1016714562868373e-002
      -4.2827916307320718e-001 -2.2592637261266907e-001
      -9.7153346695520226e-002 1.4024644449623596e+000
      -1.4244081050983650e+000 -2.4305676469361362e-001
      3.3566800011936754e-001 1.3957946213808146e-004
      1.0585889304408800e+000 -9.4430367913339475e-001
      1.2584983538545378e+000 1.0201815684377558e+000
      -5.1201798455602882e-002 -1.2531879383720387e-001
      -8.7696779683820991e-001 -1.6971489211696800e+000
      -1.2301269984985772e+000 -1.1136167050253543e-001
      -3.1769153287412666e-001 1.4607740821525499e+000
      -2.1903059426700852e-001 8.9245557906151729e-001
      4.8323467754330685e-001 3.2343337573337100e-001
      1.1432900428562551e+000 -8.0680543848959718e-001
      -3.2533195904869072e-001 3.5909442897168353e-001
      7.7829447297034970e-001 -2.0829628314557297e-001
      1.3611104091800696e-001 -4.5714242934051336e-001
      -9.5438286185484955e-001 -3.7475720355542280e-001
      -9.3727136764728192e-001 -1.4027655139378686e-001
      -2.0676600012690446e-001 -2.2443788528772370e+000
      8.7002422031764870e-001 5.6761221353379221e-001
      -5.3488206262370963e-001 5.3688593944489171e-001
      5.7256544678526400e-001 -3.4722629678588940e-001
      1.3526818244649105e+001 -5.2337118120884052e-001
      -2.0705687541103472e+000 -1.5206013935953247e-001
      1.2952065893307685e+000 -9.0081469024293737e-001
      -2.3634463755082250e-001 -1.1443081432804205e+000
      1.6052744279778902e-001 2.7101487017380466e-001
      -6.4365542858400315e-001 9.0564809429091964e-001
      -4.3228854784143805e-001 -1.2957962811940697e-002
      -4.1830177928808349e-001 -1.5641950025945317e-001
      -1.0555639902324865e-001 1.4249738890456611e+000
      -1.4109060453005779e+000 -2.9184923704313631e-001
      3.3083980247908057e-001 5.3292917478926602e-002
      1.0147324559497091e+000 -9.0225316198258643e-001
      1.1998978761595283e+000 1.0163292781997406e+000
      -9.7913340146294409e-002 -1.1618616770065823e-001
      -9.2570497366333659e-001 -1.6894122428544915e+000
      -1.2798412295402677e+000 -1.1023665353426854e-001
      -2.8134206634344711e-001 1.3993220894662866e+000
      -1.7672187174088974e-001 9.2986513769220147e-001
      4.6287532181844104e-001 3.1689660274034492e-001
      1.1890508614392743e+000 -8.3876207012769199e-001
      -3.3543777972691013e-001 3.8004117258092740e-001
      7.5250433394668870e-001 -1.5531116688358843e-001
      1.7779651821862866e-001 -4.5651189099208872e-001
      -9.4672867823827000e-001 -3.9848698171184571e-001
      -9.3060909589786500e-001 -7.2028163387482733e-002
      -2.0594258842217253e-001 -2.2086364897863509e+000
      8.2750981804104828e-001 6.3606253015647551e-001
      -5.3311086544268260e-001 5.2978276488693010e-001
      5.4979919785880826e-001 -4.0764098363684803e-001
      1.3545999803556898e+001 -5.5801226586932240e-001
      -2.0238189431801668e+000 -1.4941917417926745e-001
      1.2669108047157747e+000 -8.9317167973781253e-001
      -2.4308104607551756e-001 -1.1452626233808219e+000
      1.4328178893007887e-001 2.6685907025439881e-001
      -6.2964069201194506e-001 8.8736475492928879e-001
      -3.9361876681359914e-001 -1.7934886965551712e-002
      -4.6951037471544105e-001 -1.8846708953207097e-001
      -1.1902500351650033e-001 1.3577404178711809e+000
      -1.4462057782701205e+000 -2.4284657517817496e-001
      3.3982737990701944e-001 3.8946523474768374e-002
      1.0291036057036944e+000 -8.6213375014816829e-001
      1.2408104817694128e+000 1.0084473479718572e+000
      -5.8501900034520167e-002 -1.3714840946126439e-001
      -8.9234519065234785e-001 -1.6815783550535612e+000
      -1.3048925518485357e+000 -1.1420039332488496e-001
      -3.5263445914380304e-001 1.4397163138054467e+000
      -2.2020933702710069e-001 8.9034994888993901e-001
      4.1494848650584526e-001 3.0960185433716936e-001
      1.1464699273930434e+000 -8.7986313357491663e-001
      -4.0501348370693857e-001 3.6136852506071848e-001
      7.5643507312132752e-001 -1.9036166622528861e-001
      1.2067128418843147e-001 -4.2014323979615786e-001
      -9.3581762428447690e-001 -3.4819999875453550e-001
      -9.9479935482860748e-001 -1.0300149139732580e-001
      -2.0414173024379714e-001 -2.2228046612532197e+000
      8.4109480737786102e-001 5.9215973413899992e-001
      -5.5833591184152542e-001 5.3586801711981313e-001
      6.0614200537361662e-001 -3.4902931538596399e-001
      1.6739094184547266e+001 -9.9042600452045548e-001
      -1.4840432852547467e+000 -6.3084205535730450e-002
      2.4473510819084260e-001 9.4284767976570460e-001
      -1.2080097390322988e+000 -4.4741341098693843e-001
      6.4400896256723472e-001 5.1299265744354161e-001
      -1.0579322584133324e+000 1.6496442912369136e+000
      -3.0536249233653268e-001 2.2502973782992344e+000
      -2.3687010708304519e+000 1.0857424482742932e+000
      -8.5905459787785354e-001 -2.3445484266728711e-002
      2.5069244729494486e+000 -2.6738729665342360e+000
      2.6756207558615057e+000 -1.1757963576740209e+000
      8.5459326466641461e-001 -8.0036008140561954e-001
      1.2748017712362063e+000 -1.6123791399471556e+000
      -1.3823690132542497e+000 -5.0552941858999834e-001
      -2.8715813682735397e-001 -2.9614763862086657e-001
      4.7132343846253888e-001 6.9185496602943086e-001
      -2.3351699854069530e+000 1.8468722714071033e+000
      2.8482336443592526e+000 6.0010452188471719e-001
      9.2176617351227286e-001 4.1377446757908698e-001
      7.4850706356185159e-001 -1.3611869188406989e+000
      -4.0443604169574399e-001 5.9013563603277752e-001
      2.1692583066501578e+000 3.4077604386824456e+000
      1.2572211632697379e+000 -2.2494723848732071e-001
      -1.8386579533428024e-001 8.6823671368520394e-001
      -1.9018480268086471e+000 -7.9910573130999285e-001
      1.0127853714133259e-001 3.4186340657745085e-001
      1.0188529150981647e+000 1.0329954997664492e+000
      -7.9791731940889643e-001 -1.2398894436341638e-001
      1.6898594509978624e+000 -8.1686515614936617e-001
      1.6733008747275992e+001 -9.6056027873266792e-001
      -1.4969990654536098e+000 -2.6735578497746642e-002
      2.1222367406532899e-001 9.2276527882633896e-001
      -1.2152120832144073e+000 -4.5886060828529868e-001
      6.2220868931203399e-001 4.3977559971308794e-001
      -1.0353314595520113e+000 1.6747243316112326e+000
      -3.1819132557729601e-001 2.2831452906686200e+000
      -2.3730069664207023e+000 1.0822620326997734e+000
      -8.7005259345222752e-001 -1.7064034559206916e-002
      2.5461488245457518e+000 -2.6736747113566546e+000
      2.7142227151175953e+000 -1.1550531943371267e+000
      8.0422420964815367e-001 -8.4342843038636861e-001
      1.2641059082999579e+000 -1.6420207781332696e+000
      -1.4235100366092033e+000 -5.3216566390188413e-001
      -3.1114501747356221e-001 -2.8947085530088579e-001
      4.2320940960586478e-001 7.1358832386634208e-001
      -2.2973035404112805e+000 1.8649040969880204e+000
      2.9092577648971645e+000 5.9710777788856517e-001
      9.0443985717369979e-001 3.7429672071071640e-001
      7.4206571414440137e-001 -1.4391926749022883e+000
      -4.0079736040465619e-001 5.6792232842865265e-001
      2.1519441483879378e+000 3.4451743181352281e+000
      1.2030565298119040e+000 -2.5160109565631994e-001
      -1.3196803326889295e-001 8.9232222968068620e-001
      -1.8998123434466110e+000 -7.8558392129497367e-001
      1.0794966024322469e-001 3.2024220276949827e-001
      1.0009311052184273e+000 1.0297680520480508e+000
      -8.5284684193977278e-001 -9.1694932806951832e-002
      1.6562557976936332e+000 -8.8822833831708758e-001
      1.1220831372227874e+001 2.9928658964565642e+000
      -3.6163640187937801e-001 -8.7646302355975134e+000
      2.8953681254217374e+000 -6.3995601346632345e+000
      1.7222895406637071e+000 -1.6091527335209413e-001
      1.6573180846101363e+000 1.0256098230202455e-001
      -7.8176658931685072e-002 -4.2066932176684796e-001
      -5.3454267643839408e+000 -2.8226846440501125e+000
      3.3213586971467906e+000 -3.6573446834104351e+000
      3.4693404241891144e+000 2.2627525311288346e+000
      7.1709631618543968e-001 6.3736972326317254e-001
      -1.0360885442709180e+000 1.9588201775609539e+000
      7.9414384364612212e-001 1.4202849849155654e+000
      -6.5871911163374475e-001 1.2183956174089987e+000
      -2.0356812535447792e+000 -5.6974876536188939e+000
      1.2402942053588666e+000 3.2409574550825533e+000
      -1.0959504325395506e+000 1.0063010757618995e+001
      -4.1415175193359755e+000 2.4148075306988344e+000
      -5.5268957966730268e+000 -1.8396576815512162e+000
      2.7740854711538838e+000 -3.3630459291802666e+000
      -1.8977690601338200e+000 2.0669478889509647e+000
      -8.6585103668369179e+000 5.1888393337584642e+000
      6.3083038945940695e-001 -3.4889258751496381e+000
      -4.6364773738730314e+000 6.1145278751939935e-001
      8.6359890992367139e-001 -6.1129835746620644e+000
      2.0159852232158770e-001 6.1850303655336498e+000
      5.6877193994570163e+000 5.4021886919384032e+000
      -7.1335112080784224e+000 2.0155361504429159e-001
      -6.2624990567861638e-002 -8.3476885553128732e-001
      1.5357656210321768e+000 -8.2793109657365136e+000</_>
    <_>
      5.4313568867966344e-001 5.4870316947922904e-001
      -9.7817996256747475e-001 -1.7768425100926880e-001
      -1.2847715080253380e-001 -4.1582256682887075e-001
      4.6256607555418100e-001 3.2141258733462008e-001
      -2.9099485861850977e-001 -1.0838951694629043e-001
      -1.1170019977862988e+000 -5.7142067097847515e-001
      -3.5847983035359654e-001 -1.6102700814714693e-001
      5.9930458827705635e-001 -4.3958235137304458e-001
      2.5144704278086877e-001 5.2171895835010640e-001
      5.3341596317361617e-001 -9.7045261796120874e-001
      -7.8360558965678437e-002 -1.3502627730161412e-001
      2.1683981064649579e-002 -2.2916834320929683e-001
      -3.8885329034485094e-001 -3.9824221070169689e-002
      8.2270935855705585e-001 -1.3672134338914481e-002
      3.7166683051640304e-001 3.9108781323942710e-001
      1.9994786573539577e-001 7.1355938892310589e-001
      1.1325350935271948e-001 3.8966680827909501e-002
      -1.0041245574138609e+000 -9.4748072353564483e-001
      5.9774343400739900e-002 -5.2315359495985392e-001
      -1.6580835997150625e+000 1.8516655867210222e-001
      -8.4343252350738696e-002 5.2424819053020166e-001
      -8.6913171576916870e-001 -2.0829265445207096e-001
      3.0039352150259452e-001 -8.1522595115191976e-001
      -1.2703828375859438e-001 7.6320959568181787e-002
      -8.1220730278536779e-001 -5.0753281203806122e-002
      -1.3954897674174012e+000 4.4759970536181926e-001
      -3.5322185827375951e-001 -8.7178334003789348e-001
      -5.3346778795743366e-001 9.4868674498119032e-001
      7.0669726615199957e-001 -5.8687649306095435e-001
      1.3860508964847867e-001 -1.2633875383680817e+000
      5.8599428074115656e-001 -1.0935742710960308e-001
      5.2758498345414606e-001 -7.2952168617821223e-001
      -1.0306251327982676e+000 5.3715460953352856e-001
      -5.8684865789925278e-001 -2.1572949077841327e-001
      1.9380877124555722e+000 -6.1908077934623962e-001
      -3.5910234279486625e-001 -5.0052215628496921e-001
      -1.9677370670199382e-001 -4.6845922778755639e-001
      2.3755902781194907e-001 -3.2602270287151763e-001
      1.7174077954615527e-001 -7.3120757854881813e-001
      -1.5507352748390360e-001 -1.0898712265749357e+000
      -3.3844318731751122e-001 -2.6695279922459436e+000
      -5.0786508641973551e+000 3.2881224600677532e+000
      -4.2487698046805369e-002 1.8850097464612410e+000
      -1.6596612791046236e-001 1.9973191820434158e-001
      -9.4915167999203742e-001 -2.7049971169267867e-001
      -4.2661728136538540e-001 7.5340303915397466e-001
      -9.0135961362507389e-001 8.7985404463065930e-001
      8.0087624234145138e-001 -1.2299670710750661e+000
      -2.2975906999731183e-001 2.6620921790619717e-001
      5.7465955438450109e-002 -1.1074308253418567e-001
      -1.9893392924934766e-001 1.3086523890017259e+000
      2.4496460606337975e+000 1.8989295664984751e+000
      1.5724310868912545e+000 1.1424809365182922e+000
      1.0111594325597855e+000 7.6766744872225934e-001
      1.0539999696700462e+000 1.1749641296451223e+000
      1.7929517068846008e+000 2.0315308956813234e+000
      2.2316907833547557e+000 2.2764510983830433e+000
      2.3138773255497602e+000 1.7150096432050637e+000
      1.8138358946935875e+000 8.9197338133403514e-001
      1.8239367092376493e+000 9.1633765070367867e-001
      7.2010125476294184e-001 2.3783613942997759e+000
      1.3581065109047961e+000 2.0003283848672790e+000
      -5.0789788354304921e-002 1.3550466770462173e+000
      1.5753370200046690e+000 2.4374478043243344e+000
      2.4942740613375949e+000 1.4659190711351580e+000
      1.1527375334236356e+000 1.2242997209253454e+000
      1.4607445957170051e+000 2.0657539627321819e-001
      1.0278562140477188e+000 1.8871116858155628e+000
      3.1456954279376242e-001 -1.0338510925232101e+000
      -9.1644967476914019e-001 -8.0693858953395314e-001
      -1.3228159380318985e+000 5.1268768678246834e-001
      -6.3450506455891148e-002 3.9653345301741205e-001
      2.5440134684771878e+000 -1.0029671122402481e+000
      1.4535534457885644e+000 8.3541519961800459e-001
      3.9255422651528465e-001 -5.2822729783337250e-003
      -4.2261367024188262e-001 -6.5117827249928462e-001
      3.1425288416875846e-001 8.3205728601884341e-002
      -3.6567665569994373e-001 -2.1987711357514088e-002
      -4.4661713893065114e-001 1.3665094372068926e-001
      2.6119368410930915e-001 -5.1541922882865243e-001
      7.0908650589276723e-001 -7.0683214629270885e-001
      -3.7788250811228639e+000 -4.7445555484543467e-001
      -7.8443115682727854e-002 -1.5277781288397754e+000
      5.4035716571369186e-001 1.5532546191889891e+000
      -1.5330619953306392e+000 3.7360184019768888e-001
      1.6662660204092090e+000 -1.2913305878002418e-001
      3.3014294784552572e-001 -3.2755979555300091e-001
      -3.7687555146370083e-001 8.8077349004453642e-001
      3.4974247929974461e-001 1.7408549197911288e-001
      -5.4716234568455580e-001 2.7886198008279733e-001
      1.3034354175336917e+000 1.0503583975441915e+000
      -1.7732172309608305e+000 -1.2451714951334674e+000
      8.6367006295733129e-001 1.1585447529188879e+000
      3.1687954418007919e-001 2.6618729835076665e-001
      -1.1483312856517636e-001 -2.1824145979431567e-001
      5.2306231746637988e-001 6.1847523938194304e-001
      1.2773612498633551e+000 -2.0286595571857205e-002
      1.5091782251031289e+000 -1.1284575943324218e-001
      2.8389239788598503e-001 1.3817172225470806e-001
      2.9599504345961803e-002 2.7239742301080960e-002
      5.4309828964226381e-001 1.2028874192623665e-001
      4.4507617209256406e-001 5.3784056687592963e-001
      -1.5454206943500862e-002 1.4379337744922180e+000
      -3.3294238573839494e-002 5.7364216870733631e-001
      -2.0323299048307248e+000 5.3028485502646522e-002
      -2.2437750497402237e-001 1.2654987484291305e-001
      -8.7789011642275172e-001 3.5341677896007806e-001
      8.6448991478540949e-001 -2.7224452377460101e-001
      8.5027236880630422e-002 7.3974506016848784e-001
      -4.4697755394962718e-001 -1.2220523356480387e-001
      -1.3368824986614844e-001 -1.0313514904729337e+000
      1.5258380284136117e-001 -4.9192365401173763e-002
      3.0167772395682618e-001 -2.6257238951861450e-001
      -9.7368796173817518e-001 9.2554798858914267e-001
      -2.2419172869951240e-001 -8.8169702925841664e-001
      -6.8550956791907192e-001 -9.6278977478782335e-001
      -1.4159406410062020e-001 1.6971600893794847e-001
      -1.4331137501832888e-001 7.6179406487909684e-001
      -3.3438801889325498e-001 2.5974188703619955e-001
      7.5650885037609117e-001 -1.9424239632173407e-001
      1.1091365175824859e+000 1.2383708981951258e+000
      9.2219859118922609e-001 1.8976344765408279e-001
      -3.9656733737693090e-001 9.9663436678677678e-002
      -5.1551554487318263e-001 7.2448763740360878e-001
      1.5305821427594932e-001 4.8278754391539958e-001
      -3.8453671408271001e-001 8.3178121465685995e-001
      -2.9599492147277229e-001 1.1443009763769757e-001
      1.1115725418762235e+000 -1.2363579275369184e-001
      -4.6458333224325898e-001 5.9647179801942458e-002
      2.4904577683983452e-004 1.6313282491662178e+000
      -8.1038877713500590e-001 4.0781494559500681e-001
      -9.9874139780043747e-001 -4.6639598299791990e-001
      -8.6996241905933192e-001 1.1088230100187963e-002
      3.9723624737800933e-001 -1.4089608436443235e-001
      7.3109674890865395e-002 -4.3993049106704796e-001
      4.2693730221245962e-001 -3.4982638202688954e-001
      1.0894319918398514e+000 -3.5464331351789613e-001
      -8.8402820780131799e-002 -3.5607625126346110e-001
      1.6400244295069474e-002 3.6928049757145309e-001
      8.7301066441871092e-002 -8.6125488376576143e-001
      4.1122425099430493e-001 4.1630146278889342e-002
      -2.9677673219071891e-002 -5.7312594918813908e-001
      -4.4307421914364598e-001 -2.0781916405608603e-002
      2.0829391024361513e-001 1.5629299808413774e-001
      8.2976071070007140e-001 -1.1447707437732182e+000
      -3.4914649706993978e-001 1.3402515350145244e-001
      8.0926346368992319e-001 3.4356862680357289e-003
      -1.5151393321380988e-001 -1.8656402934640195e+000
      -9.8494048174111659e-001 7.5806847246967080e-001
      -1.8959634761051467e+000 -9.5077176383927320e-002
      -8.8606527757356768e-001 3.8391990434786560e-001
      -2.6878261058353065e-001 -1.3226442206651520e-001
      -9.2299413525674401e-001 7.1370187246912065e-001
      -6.0137864083106074e-001 7.9490741929944309e-001
      3.5758026530229259e-001 1.2860715661598793e-001
      5.8403271251856059e-001 8.2298498368762341e-001
      -3.1998488042424200e-001 -9.1797353157083228e-001
      -2.1140665867755729e-001 -3.5444226892577874e-001
      5.6078330637706397e-001 1.2997084470400844e+000
      -1.3200713381605178e+000 5.4402587991177209e-001
      2.6161341177447855e-001 7.6863671263637567e-001
      -1.7526077531508950e+000 4.0825768551073044e-001
      -2.9428519595662000e-001 7.3592774955322993e-001
      3.9970633482919576e-001 1.2257003233751693e+000
      5.0557931077057694e-001 1.0069776180583565e+000
      -3.7416822579245596e-001 1.8835018316617065e+000
      5.9170403786061665e-001 -1.1347007224267157e-001
      2.1681273809981645e-002 1.3982569502372924e+000
      -6.9248145337792466e-001 4.6119646841518669e-001
      -7.7397723720375688e-001 5.4674378001008805e-001
      -1.0294313427398389e+000 -2.0363388954299286e+000
      -5.4690182274463650e-002 1.1785316110175016e-001
      -4.4959060067728368e-001 7.6159545579680454e-001
      2.6436681694883185e-001 7.5150340168644247e-001
      -1.0348360998749149e+000 1.9589036915313229e+000
      1.5791735898912984e-001 1.4356835604671316e+000
      -1.2406268822604651e+000 6.6186997534364078e-001
      -1.7635616049420652e-001 -3.6299609405587674e-001
      -2.6568744451225346e+000 2.7040542237706039e-001
      -7.6388057373632845e-001 6.7402821435111571e-001
      -2.6562817527872934e-001 -6.0560613106830911e-002
      -5.3076315020374010e-001 1.4681231859171482e+000
      -1.0092410971519892e+000 8.0057125313667543e-001
      -6.6634983646618451e-001 -2.6610201241463412e-002
      -5.2788468469948835e-001 2.8543205478879025e-001
      1.0425666897335607e-002 -1.4111486824865831e+000
      1.5063884507960945e+000 -8.7925354604740791e-001
      -9.6686111900668481e-001 5.9022857812988772e-001
      -3.4847361481246042e-001 -1.1065543671100561e-002
      -5.0403816988543482e-001 -3.6045243524596832e-001
      -3.2651305361077620e-001 8.8766348885864221e-001
      5.7221034024708795e-001 5.2478185873793859e-001
      1.2155011792343862e-001 -3.9651370015398391e-001
      -1.4690852223694331e-001 5.2774241255430454e-001
      6.6262158769441304e-001 -1.6012582023580837e+000
      -7.4197638158481205e-001 -2.0131458171654881e-001
      -6.7453760932636919e-001 1.1564048734205274e+000
      -7.7547910007411780e-001 2.9470516601820596e-001
      -3.1141619107271890e-001 1.5649147504889316e-001
      -9.4211546896704346e-001 3.4806524268590389e-001
      -7.2098385668827025e-001 -6.8226769722522151e-001
      -6.8068956509174405e-001 -3.8588993759739387e-001
      -2.8282027412116395e-001 2.0786105560300233e-001
      -8.0384899205647908e-001 -9.1558404902886092e-001
      -1.1478257130858895e+000 1.7459875410594288e+000
      1.9226087002920589e+000 1.8423517208013083e+000
      1.9258424254745221e-001 -6.0202321127631242e-001
      5.8133366794443209e-001 8.7846511757595613e-001
      9.1028219355371309e-001 -8.5041962129514292e-001
      4.7859969285686327e-001 5.8894688686550134e-001
      1.2612341141474468e+000 8.8574605726277372e-002
      9.1750328063882780e-001 6.9999310605858478e-001
      4.4633027096833561e-001 1.0507986034058403e+000
      -2.5629566602928955e-001 5.8600112425209094e-001
      1.0315055364864706e-001 8.1752018933102710e-001
      1.1078147563852704e-001 2.6856739210560937e-001
      7.7785144107310977e-001 9.5705198832092886e-001
      3.8888283916250382e-001 1.0184612225631025e+000
      -5.9161378544306187e-001 -4.1221889938950618e-001
      9.7300594012935504e-001 -2.2410731124175320e-001
      -4.7923672158513869e-001 -3.1809230069127531e-001
      -9.4119469984371373e-001 2.3777117841800977e-001
      3.4638810824343269e-001 1.0212838252508234e+000
      1.1691444774247535e+000 -7.3847424143508580e-003
      -2.2058495261601143e+000 1.2992025392320852e-002
      -1.4222556186531206e+000 -2.9715338457460033e-001
      2.9264080524962575e+000 -7.8934257602409885e-001
      4.9819992687574166e-001 1.9422598608005361e+000
      1.2343852463122730e-001 1.1465715572673840e+000
      4.9736542194654693e-001 5.7204106438104485e-001
      -4.0078953590524852e-001 5.7311594453772693e-002
      -8.9872774997607818e-001 -2.1296781977410215e-001
      -4.9468657261289550e-001 2.1396778803075570e-001
      -1.0073566592031122e-001 1.1523178195491877e+000
      -5.2910443140812180e-001 5.0690836335312933e-002
      -1.1937575050777105e+000 -3.0242768763662076e+000
      3.1881959681860794e-001 1.2080556978537507e+000
      3.9514907601944699e-001 1.1729891179535597e-001
      -9.5832956148792825e-001 6.0126641414031947e-003
      -2.5098298495225368e-001 -3.7150851172911320e-001
      -1.2826020001982164e-001 -1.0664509011985578e-001
      -1.7671197379335063e-001 -2.5282621132070249e-001
      -6.9337718928840397e-001 -5.5550333339444403e-002
      -1.8561566841020807e+000 -4.9424567654480772e-001
      5.3176483432337185e-001 -3.9765905694349973e-001
      6.8123605813102517e-001 1.0329724533601198e-001
      -2.0064096200994938e-001 4.5060894353948375e-002
      -3.1774295572987088e-001 -1.5767007975491734e+000
      6.0508071617746950e-001 7.1650127185440582e-001
      -1.7648429287165885e-002 1.1267074126565972e-001
      -1.0947954276269669e+000 -1.0483255254167074e+000
      2.0676560486311679e+000 3.6162200311390386e-001
      -2.7942246598238102e-001 -2.7869753347840825e-001
      -5.3774175698571447e-001 -4.1925776444880836e-001
      -8.3985517237148422e-002 -1.5936814965890694e-001
      6.4577219916446449e-001 5.9181698938649507e-001
      8.2288308482077743e-001 8.7131596453249055e-002
      -4.5158451658479976e-001 2.9877399122816454e-002
      2.2005195110015668e-001 3.9552687179017787e-001
      1.5614294975861700e+000 -5.7241342504802628e-001
      8.5295083687440798e-001 1.5746649959462757e+000
      7.4935226965094948e-001 2.6534194858876775e-001
      5.7270849961981030e-001 1.5768828298390831e+000
      1.4114767985670318e+000 6.0450978539059264e-001
      -1.3088027366222570e+000 1.5155712796450795e+000
      2.4674980725953005e-001 9.0475242912455664e-002
      3.2813769437900475e-001 1.6265425910473885e+000
      3.7627247992498156e-002 4.2130110867501830e-001
      1.3157596090481312e+000 1.4032253613914206e-001
